{"learner":{"attributes":{},"feature_names":["hours-per-week","capital-diff","workclass_Federal-gov","workclass_Local-gov","workclass_Not-working","workclass_Private","workclass_Self-emp-inc","workclass_Self-emp-not-inc","workclass_State-gov","workclass_unknown","education_Bachelors","education_Doctorate","education_HS-grad","education_Masters","education_higher","education_school","marital-status_Divorced","marital-status_Married","marital-status_Married-spouse-absent","marital-status_Never-married","marital-status_Separated","marital-status_Widowed","occupation_high","occupation_low","occupation_medium","occupation_unknown","relationship_Not-in-family","relationship_Other-relative","relationship_Own-child","relationship_Parent","relationship_Unmarried","native-country_Asia","native-country_Europe","native-country_North-America","native-country_South-America","native-country_Unknown","age_0-20","age_20-30","age_30-40","age_40-50","age_50-60","age_60-70","age_70-80","age_80-90","age_>90"],"feature_types":["int","int","i","i","i","i","i","i","i","i","i","i","i","i","i","i","i","i","i","i","i","i","i","i","i","i","i","i","i","i","i","i","i","i","i","i","i","i","i","i","i","i","i","i","i"],"gradient_booster":{"model":{"gbtree_model_param":{"num_parallel_tree":"1","num_trees":"100"},"iteration_indptr":[0,1,2,3,4,5,6,7,8,9,10,11,12,13,14,15,16,17,18,19,20,21,22,23,24,25,26,27,28,29,30,31,32,33,34,35,36,37,38,39,40,41,42,43,44,45,46,47,48,49,50,51,52,53,54,55,56,57,58,59,60,61,62,63,64,65,66,67,68,69,70,71,72,73,74,75,76,77,78,79,80,81,82,83,84,85,86,87,88,89,90,91,92,93,94,95,96,97,98,99,100],"tree_info":[0,0,0,0,0,0,0,0,0,0,0,0,0,0,0,0,0,0,0,0,0,0,0,0,0,0,0,0,0,0,0,0,0,0,0,0,0,0,0,0,0,0,0,0,0,0,0,0,0,0,0,0,0,0,0,0,0,0,0,0,0,0,0,0,0,0,0,0,0,0,0,0,0,0,0,0,0,0,0,0,0,0,0,0,0,0,0,0,0,0,0,0,0,0,0,0,0,0,0,0],"trees":[{"base_weights":[-9.491796E-2,-1.0173221E0,1.0119025E0,-1.0999267E0,3.5228581E0,4.664779E-1,2.156543E0,-1.2082661E0,-6.878433E-1,2.172002E0,3.6305377E0,2.8247947E-1,3.6594582E0,1.9168137E0,3.7083752E0,-1.2486874E-1,-9.483802E-2,-8.4311984E-2,-1.9160202E-2,3.0258933E-1,1.6295405E-1,3.675344E-1,3.100275E-1,2.744682E-1,1.7020466E-2,3.1589973E-1,3.725546E-1,3.511798E-1,1.7510799E-1,3.3343253E-1,3.727843E-1],"categories":[],"categories_nodes":[],"categories_segments":[],"categories_sizes":[],"default_left":[0,0,0,0,0,0,0,0,0,0,0,0,0,0,0,0,0,0,0,0,0,0,0,0,0,0,0,0,0,0,0],"id":0,"left_children":[1,3,5,7,9,11,13,15,17,19,21,23,25,27,29,-1,-1,-1,-1,-1,-1,-1,-1,-1,-1,-1,-1,-1,-1,-1,-1],"loss_changes":[1.0246944E5,2.0535344E4,2.848236E4,2.3996016E3,1.3444336E2,1.8153352E4,5.4703203E3,4.4604297E2,8.6249316E2,2.9683044E1,1.0100586E1,8.0767407E3,4.3916016E1,3.3656523E3,1.9082031E0,0E0,0E0,0E0,0E0,0E0,0E0,0E0,0E0,0E0,0E0,0E0,0E0,0E0,0E0,0E0,0E0],"parents":[2147483647,0,0,1,1,2,2,3,3,4,4,5,5,6,6,7,7,8,8,9,9,10,10,11,11,12,12,13,13,14,14],"right_children":[2,4,6,8,10,12,14,16,18,20,22,24,26,28,30,-1,-1,-1,-1,-1,-1,-1,-1,-1,-1,-1,-1,-1,-1,-1,-1],"split_conditions":[1E0,7.298E3,1E0,1E0,8.614E3,5.178E3,5.178E3,4.7E1,4.9E1,7.443E3,1E0,-1.824E3,7.298E3,-1.762E3,7.298E3,-1.2486874E-1,-9.483802E-2,-8.4311984E-2,-1.9160202E-2,3.0258933E-1,1.6295405E-1,3.675344E-1,3.100275E-1,2.744682E-1,1.7020466E-2,3.1589973E-1,3.725546E-1,3.511798E-1,1.7510799E-1,3.3343253E-1,3.727843E-1],"split_indices":[29,1,22,22,1,1,1,0,0,1,28,1,1,1,1,0,0,0,0,0,0,0,0,0,0,0,0,0,0,0,0],"split_type":[0,0,0,0,0,0,0,0,0,0,0,0,0,0,0,0,0,0,0,0,0,0,0,0,0,0,0,0,0,0,0],"sum_hessian":[1.0036616E5,5.474377E4,4.562239E4,5.3766297E4,9.774728E2,3.0899904E4,1.4722485E4,4.257193E4,1.1194367E4,7.3727135E1,9.037456E2,2.9217318E4,1.6825865E3,1.2754401E4,1.9680831E3,3.683847E4,5.733461E3,8.525876E3,2.6684907E3,2.6863344E1,4.686379E1,8.278616E2,7.588404E1,1.2731656E3,2.7944152E4,2.0196529E2,1.4806212E3,1.1986542E3,1.1555748E4,1.0588471E2,1.8621984E3],"tree_param":{"num_deleted":"0","num_feature":"45","num_nodes":"31","size_leaf_vector":"1"}},{"base_weights":[-9.399736E-2,-9.6835726E-1,8.644145E-1,-1.1121796E0,-4.594476E-1,4.0196E-1,1.7627807E0,-1.1922507E0,-9.6186596E-1,-2.0463075E-1,-1.0025028E0,5.972782E-1,-6.409249E-1,1.9057753E0,8.0885386E-1,-1.1088772E-1,-1.2511991E-1,-7.6792344E-2,-1.1019392E-1,-2.587503E-2,1.1702936E-1,-1.0183877E-1,1.1750448E-2,9.934837E-2,1.781892E-2,-7.825088E-2,-4.884034E-2,2.024749E-1,9.506192E-2,9.250511E-2,-1.5993051E-2],"categories":[],"categories_nodes":[],"categories_segments":[],"categories_sizes":[],"default_left":[0,0,0,0,0,0,0,0,0,0,0,0,0,0,0,0,0,0,0,0,0,0,0,0,0,0,0,0,0,0,0],"id":1,"left_children":[1,3,5,7,9,11,13,15,17,19,21,23,25,27,29,-1,-1,-1,-1,-1,-1,-1,-1,-1,-1,-1,-1,-1,-1,-1,-1],"loss_changes":[8.352261E4,3.814289E3,1.9753805E4,4.879336E2,1.5891951E3,6.3946875E3,2.2025977E3,1.2889453E2,3.8296094E2,5.821041E2,6.53772E1,4.390123E3,1.0656067E2,1.5948672E3,2.3746533E2,0E0,0E0,0E0,0E0,0E0,0E0,0E0,0E0,0E0,0E0,0E0,0E0,0E0,0E0,0E0,0E0],"parents":[2147483647,0,0,1,1,2,2,3,3,4,4,5,5,6,6,7,7,8,8,9,9,10,10,11,11,12,12,13,13,14,14],"right_children":[2,4,6,8,10,12,14,16,18,20,22,24,26,28,30,-1,-1,-1,-1,-1,-1,-1,-1,-1,-1,-1,-1,-1,-1,-1,-1],"split_conditions":[1E0,1E0,1E0,1E0,1E0,1E0,1E0,1E0,1E0,1E0,1E0,1E0,1E0,1E0,1E0,-1.1088772E-1,-1.2511991E-1,-7.6792344E-2,-1.1019392E-1,-2.587503E-2,1.1702936E-1,-1.0183877E-1,1.1750448E-2,9.934837E-2,1.781892E-2,-7.825088E-2,-4.884034E-2,2.024749E-1,9.506192E-2,9.250511E-2,-1.5993051E-2],"split_indices":[29,22,22,24,37,15,12,19,19,11,17,12,24,37,37,0,0,0,0,0,0,0,0,0,0,0,0,0,0,0,0],"split_type":[0,0,0,0,0,0,0,0,0,0,0,0,0,0,0,0,0,0,0,0,0,0,0,0,0,0,0,0,0,0,0],"sum_hessian":[9.966735E4,5.2119074E4,4.754828E4,4.0634277E4,1.1484796E4,3.1390666E4,1.6157615E4,2.650717E4,1.4127107E4,7.817827E3,3.6669685E3,2.6439361E4,4.951306E3,1.405044E4,2.1071746E3,1.0987242E4,1.5519927E4,5.927078E3,8.200029E3,7.522538E3,2.9528915E2,3.615777E3,5.119136E1,1.3590021E4,1.2849339E4,2.5655789E3,2.385727E3,1.2493177E4,1.5572633E3,1.8815449E3,2.2562971E2],"tree_param":{"num_deleted":"0","num_feature":"45","num_nodes":"31","size_leaf_vector":"1"}},{"base_weights":[-8.742641E-2,-9.1752386E-1,7.5137985E-1,-7.472943E-1,-1.1431028E0,9.074809E-1,-5.550998E-1,-6.1455613E-1,-1.1601357E0,-1.0593928E0,-1.2033828E0,1.2563554E0,2.451962E-1,-4.9653673E-1,-9.287734E-1,-4.5972284E-2,-1.0180396E-1,-1.18395865E-1,-1.0576132E-2,-1.07492246E-1,-6.0964335E-2,-1.253789E-1,-1.1201195E-1,1.7021804E-1,7.918433E-2,3.896669E-2,-5.0739285E-2,-3.8193118E-2,-6.72297E-2,-8.182262E-2,-1.0729978E-1],"categories":[],"categories_nodes":[],"categories_segments":[],"categories_sizes":[],"default_left":[0,0,0,0,0,0,0,0,0,0,0,0,0,0,0,0,0,0,0,0,0,0,0,0,0,0,0,0,0,0,0],"id":2,"left_children":[1,3,5,7,9,11,13,15,17,19,21,23,25,27,29,-1,-1,-1,-1,-1,-1,-1,-1,-1,-1,-1,-1,-1,-1,-1,-1],"loss_changes":[6.868007E4,1.9028672E3,1.0006189E4,1.5477725E3,1.0630859E2,1.0125715E4,1.1414075E2,1.3354688E3,1.7253125E2,6.174121E1,5.0583984E1,5.943043E3,1.6443721E3,9.098193E1,1.0416382E1,0E0,0E0,0E0,0E0,0E0,0E0,0E0,0E0,0E0,0E0,0E0,0E0,0E0,0E0,0E0,0E0],"parents":[2147483647,0,0,1,1,2,2,3,3,4,4,5,5,6,6,7,7,8,8,9,9,10,10,11,11,12,12,13,13,14,14],"right_children":[2,4,6,8,10,12,14,16,18,20,22,24,26,28,30,-1,-1,-1,-1,-1,-1,-1,-1,-1,-1,-1,-1,-1,-1,-1,-1],"split_conditions":[1E0,1E0,1E0,1E0,1E0,1E0,1E0,1E0,1E0,1E0,1E0,1E0,1E0,1E0,1E0,-4.5972284E-2,-1.0180396E-1,-1.18395865E-1,-1.0576132E-2,-1.07492246E-1,-6.0964335E-2,-1.253789E-1,-1.1201195E-1,1.7021804E-1,7.918433E-2,3.896669E-2,-5.0739285E-2,-3.8193118E-2,-6.72297E-2,-8.182262E-2,-1.0729978E-1],"split_indices":[29,23,15,28,19,12,37,37,17,17,26,14,37,23,23,0,0,0,0,0,0,0,0,0,0,0,0,0,0,0,0],"split_type":[0,0,0,0,0,0,0,0,0,0,0,0,0,0,0,0,0,0,0,0,0,0,0,0,0,0,0,0,0,0,0],"sum_hessian":[9.863504E4,4.9574824E4,4.9060215E4,2.8256107E4,2.1318719E4,4.3824297E4,5.235918E3,2.1383348E4,6.8727583E3,8.932657E3,1.2386061E4,2.8703262E4,1.5121034E4,4.528525E3,7.073929E2,1.545483E4,5.9285186E3,6.720784E3,1.5197443E2,8.633167E3,2.9949057E2,7.7065693E3,4.6794917E3,1.464488E4,1.4058383E4,1.2686209E4,2.434825E3,2.7430652E3,1.7854596E3,4.0422778E2,3.0316513E2],"tree_param":{"num_deleted":"0","num_feature":"45","num_nodes":"31","size_leaf_vector":"1"}},{"base_weights":[-8.4301606E-2,-8.736444E-1,6.5742075E-1,-9.6229345E-1,2.9964554E0,4.8350188E-1,2.449623E0,-9.971478E-1,-1.8027408E-1,1.7561365E0,3.0583372E0,2.1239703E0,3.703922E-1,2.3967404E0,2.7156775E0,9.351882E-2,-1.0081356E-1,-1.823294E-3,-7.907074E-2,2.6313707E-1,6.624823E-2,3.0911672E-1,2.1171193E-1,4.63167E-2,2.4770193E-1,5.0104257E-2,-6.798903E-2,2.1364227E-1,2.4155295E-1,2.4537233E-1,2.7565977E-1],"categories":[],"categories_nodes":[],"categories_segments":[],"categories_sizes":[],"default_left":[0,0,0,0,0,0,0,0,0,0,0,0,0,0,0,0,0,0,0,0,0,0,0,0,0,0,0,0,0,0,0],"id":3,"left_children":[1,3,5,7,9,11,13,15,17,19,21,23,25,27,29,-1,-1,-1,-1,-1,-1,-1,-1,-1,-1,-1,-1,-1,-1,-1,-1],"loss_changes":[5.6931953E4,1.6164785E4,1.5625084E4,1.2551055E3,7.561426E1,8.47886E3,5.5882812E1,9.3703906E2,1.9447804E2,4.8500443E1,2.4469727E1,1.7271055E3,5.866878E3,1.2972656E1,1.0371094E0,0E0,0E0,0E0,0E0,0E0,0E0,0E0,0E0,0E0,0E0,0E0,0E0,0E0,0E0,0E0,0E0],"parents":[2147483647,0,0,1,1,2,2,3,3,4,4,5,5,6,6,7,7,8,8,9,9,10,10,11,11,12,12,13,13,14,14],"right_children":[2,4,6,8,10,12,14,16,18,20,22,24,26,28,30,-1,-1,-1,-1,-1,-1,-1,-1,-1,-1,-1,-1,-1,-1,-1,-1],"split_conditions":[1E0,7.298E3,5.178E3,1E0,7.688E3,-1.824E3,1E0,-2.205E3,1E0,7.443E3,1E0,-1.98E3,1E0,7.298E3,7.298E3,9.351882E-2,-1.0081356E-1,-1.823294E-3,-7.907074E-2,2.6313707E-1,6.624823E-2,3.0911672E-1,2.1171193E-1,4.63167E-2,2.4770193E-1,5.0104257E-2,-6.798903E-2,2.1364227E-1,2.4155295E-1,2.4537233E-1,2.7565977E-1],"split_indices":[29,1,1,13,1,1,12,1,37,1,15,1,15,1,1,0,0,0,0,0,0,0,0,0,0,0,0,0,0,0,0],"split_type":[0,0,0,0,0,0,0,0,0,0,0,0,0,0,0,0,0,0,0,0,0,0,0,0,0,0,0,0,0,0,0],"sum_hessian":[9.723894E4,4.710718E4,5.0131758E4,4.6053035E4,1.0541456E3,4.5698367E4,4.433391E3,4.408778E4,1.9652526E3,5.149006E1,1.0026555E3,2.9464998E3,4.2751867E4,3.7066453E3,7.267457E2,2.488016E2,4.383898E4,1.5538174E3,4.1143512E2,2.782007E1,2.366999E1,9.666542E2,3.600134E1,5.169572E2,2.4295425E3,3.802256E4,4.7293086E3,2.572485E2,3.4493967E3,1.0642392E2,6.203218E2],"tree_param":{"num_deleted":"0","num_feature":"45","num_nodes":"31","size_leaf_vector":"1"}},{"base_weights":[-7.813298E-2,-8.420813E-1,5.7495666E-1,-9.2915857E-1,2.4512851E0,4.2038387E-1,2.1355398E0,-9.6403754E-1,-1.831675E-1,1.4933256E0,2.5091863E0,1.8336263E0,3.2092294E-1,2.096815E0,2.2222304E0,-9.7755395E-2,7.978376E-2,-2.9981113E-3,-7.672214E-2,1.5520065E-1,5.0992336E-2,2.5362036E-1,1.6722228E-1,4.039281E-2,2.131416E-1,4.3667667E-2,-6.403684E-2,2.7640358E-1,2.0914355E-1,2.0277885E-1,2.2447322E-1],"categories":[],"categories_nodes":[],"categories_segments":[],"categories_sizes":[],"default_left":[0,0,0,0,0,0,0,0,0,0,0,0,0,0,0,0,0,0,0,0,0,0,0,0,0,0,0,0,0,0,0],"id":4,"left_children":[1,3,5,7,9,11,13,15,17,19,21,23,25,27,29,-1,-1,-1,-1,-1,-1,-1,-1,-1,-1,-1,-1,-1,-1,-1,-1],"loss_changes":[4.7654547E4,1.2626467E4,1.2420504E4,1.1157344E3,5.916504E1,6.5853047E3,1.0917969E1,9.764883E2,1.7147931E2,3.081726E0,1.9910645E1,1.3106406E3,4.8711934E3,5.796875E0,1.644043E0,0E0,0E0,0E0,0E0,0E0,0E0,0E0,0E0,0E0,0E0,0E0,0E0,0E0,0E0,0E0,0E0],"parents":[2147483647,0,0,1,1,2,2,3,3,4,4,5,5,6,6,7,7,8,8,9,9,10,10,11,11,12,12,13,13,14,14],"right_children":[2,4,6,8,10,12,14,16,18,20,22,24,26,28,30,-1,-1,-1,-1,-1,-1,-1,-1,-1,-1,-1,-1,-1,-1,-1,-1],"split_conditions":[1E0,7.298E3,5.178E3,1E0,8.614E3,-1.824E3,1E0,1E0,1E0,1E0,1E0,-1.98E3,1E0,1E0,7.298E3,-9.7755395E-2,7.978376E-2,-2.9981113E-3,-7.672214E-2,1.5520065E-1,5.0992336E-2,2.5362036E-1,1.6722228E-1,4.039281E-2,2.131416E-1,4.3667667E-2,-6.403684E-2,2.7640358E-1,2.0914355E-1,2.0277885E-1,2.2447322E-1],"split_indices":[17,1,1,13,1,1,24,11,37,8,15,1,15,29,1,0,0,0,0,0,0,0,0,0,0,0,0,0,0,0,0],"split_type":[0,0,0,0,0,0,0,0,0,0,0,0,0,0,0,0,0,0,0,0,0,0,0,0,0,0,0,0,0,0,0],"sum_hessian":[9.551216E4,4.401986E4,5.1492297E4,4.2886645E4,1.133214E3,4.685288E4,4.6394194E3,4.0970758E4,1.9158888E3,6.611692E1,1.067097E3,3.0794514E3,4.3773426E4,3.224311E3,1.4151083E3,4.065928E4,3.1147537E2,1.5186315E3,3.9725726E2,6.1848167E1,4.268751E0,1.0317618E3,3.533525E1,5.312518E2,2.5481995E3,3.9069434E4,4.7039927E3,2.1687319E1,3.2026238E3,1.5622722E2,1.2588811E3],"tree_param":{"num_deleted":"0","num_feature":"45","num_nodes":"31","size_leaf_vector":"1"}},{"base_weights":[-7.264265E-2,-8.041039E-1,5.1352876E-1,-9.0151215E-1,1.798438E0,1.8330017E-1,1.1302245E0,-1.0235711E0,-4.8267257E-1,6.834726E-1,2.1493416E0,6.197091E-2,1.9755821E0,1.0140111E0,1.854817E0,-1.0731702E-1,-7.1326874E-2,-7.008382E-2,-5.362141E-3,2.7467266E-1,1.7268676E-2,2.1861508E-1,4.5623507E-2,1.5139453E-1,-1.4959222E-3,1.7151463E-1,2.0096092E-1,1.7697495E-1,9.324798E-2,1.6754109E-1,1.86423E-1],"categories":[],"categories_nodes":[],"categories_segments":[],"categories_sizes":[],"default_left":[0,0,0,0,0,0,0,0,0,0,0,0,0,0,0,0,0,0,0,0,0,0,0,0,0,0,0,0,0,0,0],"id":5,"left_children":[1,3,5,7,9,11,13,15,17,19,21,23,25,27,29,-1,-1,-1,-1,-1,-1,-1,-1,-1,-1,-1,-1,-1,-1,-1,-1],"loss_changes":[4.0181156E4,1.0570516E4,1.059452E4,2.0539922E3,5.871333E2,7.3678315E3,1.5258535E3,4.781543E2,8.4899756E2,3.806103E2,7.02876E1,3.5448677E3,1.559082E1,9.6185547E2,1.109375E0,0E0,0E0,0E0,0E0,0E0,0E0,0E0,0E0,0E0,0E0,0E0,0E0,0E0,0E0,0E0,0E0],"parents":[2147483647,0,0,1,1,2,2,3,3,4,4,5,5,6,6,7,7,8,8,9,9,10,10,11,11,12,12,13,13,14,14],"right_children":[2,4,6,8,10,12,14,16,18,20,22,24,26,28,30,-1,-1,-1,-1,-1,-1,-1,-1,-1,-1,-1,-1,-1,-1,-1,-1],"split_conditions":[1E0,4.676E3,1E0,1E0,7.688E3,5.178E3,5.178E3,4.7E1,4.5E1,4.849E3,1E0,-1.824E3,7.298E3,-1.762E3,7.298E3,-1.0731702E-1,-7.1326874E-2,-7.008382E-2,-5.362141E-3,2.7467266E-1,1.7268676E-2,2.1861508E-1,4.5623507E-2,1.5139453E-1,-1.4959222E-3,1.7151463E-1,2.0096092E-1,1.7697495E-1,9.324798E-2,1.6754109E-1,1.86423E-1],"split_indices":[17,1,22,22,1,1,1,0,0,1,36,1,1,1,1,0,0,0,0,0,0,0,0,0,0,0,0,0,0,0,0],"split_type":[0,0,0,0,0,0,0,0,0,0,0,0,0,0,0,0,0,0,0,0,0,0,0,0,0,0,0,0,0,0,0],"sum_hessian":[9.371247E4,4.1689426E4,5.2023043E4,4.0185996E4,1.503432E3,3.388147E4,1.8141574E4,3.111652E4,9.069476E3,3.6060126E2,1.1428307E3,3.173424E4,2.147228E3,1.5636177E4,2.5053977E3,2.6826139E4,4.290382E3,6.011891E3,3.057584E3,7.068814E1,2.8991312E2,1.1182285E3,2.4602232E1,1.5958369E3,3.0138404E4,2.5406721E2,1.8931608E3,1.5205975E3,1.4115579E4,1.3382271E2,2.371575E3],"tree_param":{"num_deleted":"0","num_feature":"45","num_nodes":"31","size_leaf_vector":"1"}},{"base_weights":[-6.877744E-2,-7.569077E-1,4.6601373E-1,-8.5196584E-1,1.5836868E0,3.4283435E-1,1.7431338E0,-9.794198E-1,-4.3093064E-1,4.9656683E-1,1.8800687E0,6.3893296E-2,8.945787E-1,1.532218E0,1.7631601E0,7.210875E-2,-9.8812945E-2,-2.1565609E-2,-9.1706544E-2,2.1359213E-1,-4.329794E-3,1.9105163E-1,3.9837897E-2,1.344934E-1,-5.4188527E-4,9.896075E-2,1.7576847E-2,1.9123854E-1,7.880865E-2,1.8204635E-1,1.7159721E-1],"categories":[],"categories_nodes":[],"categories_segments":[],"categories_sizes":[],"default_left":[0,0,0,0,0,0,0,0,0,0,0,0,0,0,0,0,0,0,0,0,0,0,0,0,0,0,0,0,0,0,0],"id":6,"left_children":[1,3,5,7,9,11,13,15,17,19,21,23,25,27,29,-1,-1,-1,-1,-1,-1,-1,-1,-1,-1,-1,-1,-1,-1,-1,-1],"loss_changes":[3.371984E4,8.916559E3,8.110378E3,2.0659375E3,5.0305005E2,7.2372334E3,1.6453125E1,4.3848633E2,9.36405E2,2.9785806E2,5.4671875E1,2.7734185E3,1.0784473E3,1.1190723E2,8.05957E0,0E0,0E0,0E0,0E0,0E0,0E0,0E0,0E0,0E0,0E0,0E0,0E0,0E0,0E0,0E0,0E0],"parents":[2147483647,0,0,1,1,2,2,3,3,4,4,5,5,6,6,7,7,8,8,9,9,10,10,11,11,12,12,13,13,14,14],"right_children":[2,4,6,8,10,12,14,16,18,20,22,24,26,28,30,-1,-1,-1,-1,-1,-1,-1,-1,-1,-1,-1,-1,-1,-1,-1,-1],"split_conditions":[1E0,4.676E3,5.178E3,1E0,7.298E3,1E0,7.298E3,-2.205E3,1E0,4.849E3,1E0,-1.824E3,1E0,5.202E3,1E0,7.210875E-2,-9.8812945E-2,-2.1565609E-2,-9.1706544E-2,2.1359213E-1,-4.329794E-3,1.9105163E-1,3.9837897E-2,1.344934E-1,-5.4188527E-4,9.896075E-2,1.7576847E-2,1.9123854E-1,7.880865E-2,1.8204635E-1,1.7159721E-1],"split_indices":[29,1,1,22,1,22,1,1,37,1,36,1,37,1,22,0,0,0,0,0,0,0,0,0,0,0,0,0,0,0,0],"split_type":[0,0,0,0,0,0,0,0,0,0,0,0,0,0,0,0,0,0,0,0,0,0,0,0,0,0,0,0,0,0,0],"sum_hessian":[9.162655E4,4.006868E4,5.1557867E4,3.85055E4,1.5631815E3,4.7023664E4,4.534206E3,2.9556852E4,8.948648E3,3.3544702E2,1.2277344E3,3.1234033E4,1.578963E4,3.9990674E2,4.1342993E3,1.501954E2,2.9406656E4,6.203155E3,2.745493E3,8.236894E1,2.5307808E2,1.2027299E3,2.5004566E1,1.6022645E3,2.9631768E4,1.39456045E4,1.8440251E3,2.6364426E2,1.3626247E2,1.850065E3,2.2842344E3],"tree_param":{"num_deleted":"0","num_feature":"45","num_nodes":"31","size_leaf_vector":"1"}},{"base_weights":[-6.4330064E-2,-7.3487854E-1,4.147987E-1,-8.2566786E-1,1.4343301E0,3.032529E-1,1.6181284E0,-9.547621E-1,-4.179268E-1,4.8293704E-1,1.7434382E0,5.2723147E-2,7.9927135E-1,1.3770658E0,1.6408983E0,-1.0209944E-1,-6.743721E-2,-6.0056645E-2,7.7117705E-3,2.0076321E-1,7.5192116E-3,1.7666869E-1,1.10011116E-1,-5.271538E-3,8.2759894E-2,8.967557E-2,1.8812388E-2,1.774147E-1,6.058603E-2,1.6221903E-1,1.7358772E-1],"categories":[],"categories_nodes":[],"categories_segments":[],"categories_sizes":[],"default_left":[0,0,0,0,0,0,0,0,0,0,0,0,0,0,0,0,0,0,0,0,0,0,0,0,0,0,0,0,0,0,0],"id":7,"left_children":[1,3,5,7,9,11,13,15,17,19,21,23,25,27,29,-1,-1,-1,-1,-1,-1,-1,-1,-1,-1,-1,-1,-1,-1,-1,-1],"loss_changes":[2.877445E4,7.3520195E3,7.011115E3,1.8853867E3,4.4022363E2,5.940799E3,2.2063477E1,5.0463086E2,7.791516E2,2.2935919E2,1.4981445E1,2.5952793E3,9.556406E2,1.1794348E2,4.368164E0,0E0,0E0,0E0,0E0,0E0,0E0,0E0,0E0,0E0,0E0,0E0,0E0,0E0,0E0,0E0,0E0],"parents":[2147483647,0,0,1,1,2,2,3,3,4,4,5,5,6,6,7,7,8,8,9,9,10,10,11,11,12,12,13,13,14,14],"right_children":[2,4,6,8,10,12,14,16,18,20,22,24,26,28,30,-1,-1,-1,-1,-1,-1,-1,-1,-1,-1,-1,-1,-1,-1,-1,-1],"split_conditions":[1E0,4.787E3,5.178E3,1E0,7.688E3,1E0,7.298E3,4.4E1,4.6E1,4.849E3,1E0,1E0,1E0,5.202E3,1E0,-1.0209944E-1,-6.743721E-2,-6.0056645E-2,7.7117705E-3,2.0076321E-1,7.5192116E-3,1.7666869E-1,1.10011116E-1,-5.271538E-3,8.2759894E-2,8.967557E-2,1.8812388E-2,1.774147E-1,6.058603E-2,1.6221903E-1,1.7358772E-1],"split_indices":[17,1,1,22,1,22,1,0,0,1,15,10,12,1,12,0,0,0,0,0,0,0,0,0,0,0,0,0,0,0,0],"split_type":[0,0,0,0,0,0,0,0,0,0,0,0,0,0,0,0,0,0,0,0,0,0,0,0,0,0,0,0,0,0,0],"sum_hessian":[8.956023E4,3.7324062E4,5.2236164E4,3.582526E4,1.498799E3,4.780592E4,4.4302427E3,2.7209246E4,8.616018E3,3.6817334E2,1.1306256E3,3.1763746E4,1.6042176E4,3.876553E2,4.0425874E3,2.2007988E4,5.2012563E3,6.293797E3,2.3222207E3,7.6856674E1,2.9131665E2,1.0895067E3,4.1118927E1,2.7960104E4,3.8036418E3,1.3834898E4,2.207277E3,2.5503923E2,1.3261606E2,3.392451E3,6.501366E2],"tree_param":{"num_deleted":"0","num_feature":"45","num_nodes":"31","size_leaf_vector":"1"}},{"base_weights":[-5.910835E-2,-7.03172E-1,3.75805E-1,-7.911109E-1,1.2853858E0,2.7385813E-1,1.5232023E0,-9.245164E-1,-3.866202E-1,3.7419882E-1,1.6077495E0,4.7698487E-2,7.174635E-1,1.3030871E0,1.5445856E0,-9.822062E-2,-5.8152568E-2,-1.7688831E-2,-8.835142E-2,1.390019E-1,3.490947E-3,1.6366528E-1,2.6339984E-2,1.7930686E-2,-5.743253E-2,1.4934589E-1,6.401824E-2,1.6448721E-1,6.510943E-2,1.5829897E-1,1.5122502E-1],"categories":[],"categories_nodes":[],"categories_segments":[],"categories_sizes":[],"default_left":[0,0,0,0,0,0,0,0,0,0,0,0,0,0,0,0,0,0,0,0,0,0,0,0,0,0,0,0,0,0,0],"id":8,"left_children":[1,3,5,7,9,11,13,15,17,19,21,23,25,27,29,-1,-1,-1,-1,-1,-1,-1,-1,-1,-1,-1,-1,-1,-1,-1,-1],"loss_changes":[2.4496629E4,6.1653184E3,6.105908E3,1.8212812E3,4.380083E2,4.8099854E3,1.8036133E1,5.0172266E2,8.725591E2,1.3489424E2,4.241577E1,2.59975E3,9.6990625E2,8.440057E1,2.4208984E0,0E0,0E0,0E0,0E0,0E0,0E0,0E0,0E0,0E0,0E0,0E0,0E0,0E0,0E0,0E0,0E0],"parents":[2147483647,0,0,1,1,2,2,3,3,4,4,5,5,6,6,7,7,8,8,9,9,10,10,11,11,12,12,13,13,14,14],"right_children":[2,4,6,8,10,12,14,16,18,20,22,24,26,28,30,-1,-1,-1,-1,-1,-1,-1,-1,-1,-1,-1,-1,-1,-1,-1,-1],"split_conditions":[1E0,4.676E3,5.178E3,1E0,7.688E3,1E0,7.298E3,4.7E1,1E0,4.849E3,1E0,1E0,-1.762E3,5.202E3,1E0,-9.822062E-2,-5.8152568E-2,-1.7688831E-2,-8.835142E-2,1.390019E-1,3.490947E-3,1.6366528E-1,2.6339984E-2,1.7930686E-2,-5.743253E-2,1.4934589E-1,6.401824E-2,1.6448721E-1,6.510943E-2,1.5829897E-1,1.5122502E-1],"split_indices":[17,1,1,22,1,22,1,0,37,1,36,37,1,1,22,0,0,0,0,0,0,0,0,0,0,0,0,0,0,0,0],"split_type":[0,0,0,0,0,0,0,0,0,0,0,0,0,0,0,0,0,0,0,0,0,0,0,0,0,0,0,0,0,0,0],"sum_hessian":[8.745107E4,3.5249473E4,5.22016E4,3.3757246E4,1.4922247E3,4.794307E4,4.2585293E3,2.5384027E4,8.373219E3,3.9052768E2,1.1016971E3,3.1754861E4,1.6188208E4,3.8255328E2,3.8759763E3,2.1727652E4,3.6563748E3,5.8889385E3,2.4842808E3,9.7004074E1,2.935236E2,1.0782965E3,2.3400614E1,2.6210031E4,5.544831E3,1.4645043E3,1.4723704E4,2.4998456E2,1.3256873E2,1.7498082E3,2.126168E3],"tree_param":{"num_deleted":"0","num_feature":"45","num_nodes":"31","size_leaf_vector":"1"}},{"base_weights":[-5.6150667E-2,1.5739305E-1,-8.1288797E-1,5.8251534E-2,1.416143E0,-8.707413E-1,1.4768369E0,-1.4442408E-1,4.7951958E-1,9.820458E-1,1.465563E-1,-9.875975E-1,-4.92209E-1,1.5404961E0,-1.7313576E-1,-2.3741756E-2,6.1410945E-2,1.360421E-1,4.0727835E-2,1.552255E-1,4.3180984E-2,-1.0839812E-1,-8.422923E-2,-1.59372E-2,-8.5204735E-2,7.17392E-2,1.5598147E-1,1.3822614E-1,-1.3076246E-1],"categories":[],"categories_nodes":[],"categories_segments":[],"categories_sizes":[],"default_left":[0,0,0,0,0,0,0,0,0,0,0,0,0,0,0,0,0,0,0,0,0,0,0,0,0,0,0,0,0],"id":9,"left_children":[1,3,5,7,9,11,13,15,17,19,-1,21,23,25,27,-1,-1,-1,-1,-1,-1,-1,-1,-1,-1,-1,-1,-1,-1],"loss_changes":[1.3792346E4,8.307033E3,2.4896104E3,5.2686904E3,1.0282324E2,8.099678E2,4.892865E1,2.9390503E3,1.2750347E3,1.5613412E2,0E0,1.9514453E2,5.1773157E2,5.975708E0,3.376318E1,0E0,0E0,0E0,0E0,0E0,0E0,0E0,0E0,0E0,0E0,0E0,0E0,0E0,0E0],"parents":[2147483647,0,0,1,1,2,2,3,3,4,4,5,5,6,6,7,7,8,8,9,9,11,11,12,12,13,13,14,14],"right_children":[2,4,6,8,10,12,14,16,18,20,-1,22,24,26,28,-1,-1,-1,-1,-1,-1,-1,-1,-1,-1,-1,-1,-1,-1],"split_conditions":[1E0,5.178E3,7.298E3,1E0,7.298E3,1E0,1E0,1E0,-1.824E3,5.202E3,1.465563E-1,1E0,1E0,7.688E3,2.5036E4,-2.3741756E-2,6.1410945E-2,1.360421E-1,4.0727835E-2,1.552255E-1,4.3180984E-2,-1.0839812E-1,-8.422923E-2,-1.59372E-2,-8.5204735E-2,7.17392E-2,1.5598147E-1,1.3822614E-1,-1.3076246E-1],"split_indices":[19,1,1,22,1,22,15,10,1,1,0,26,37,1,1,0,0,0,0,0,0,0,0,0,0,0,0,0,0],"split_type":[0,0,0,0,0,0,0,0,0,0,0,0,0,0,0,0,0,0,0,0,0,0,0,0,0,0,0,0,0],"sum_hessian":[8.5348734E4,6.656543E4,1.8783309E4,6.1706363E4,4.8590635E3,1.832102E4,4.622884E2,4.166273E4,2.0043635E4,4.9877548E2,4.360288E3,1.3998081E4,4.322939E3,4.4517886E2,1.7109516E1,3.711344E4,4.549287E3,1.5178093E3,1.8525826E4,2.4404784E2,2.5472765E2,8.411871E3,5.58621E3,2.2464758E3,2.0764631E3,1.1083369E1,4.3409552E2,7.1240134E0,9.985502E0],"tree_param":{"num_deleted":"0","num_feature":"45","num_nodes":"29","size_leaf_vector":"1"}},{"base_weights":[-5.2068345E-2,-6.54315E-1,3.2290486E-1,-7.3471195E-1,1.1225984E0,2.376683E-1,1.3743721E0,-8.7113076E-1,-3.5436472E-1,3.756015E-1,1.4285882E0,3.262074E-1,-5.680183E-1,1.1138128E0,1.4006795E-1,8.549407E-2,-8.843834E-2,-1.8147413E-2,-8.2044534E-2,1.4639762E-1,7.919217E-3,1.4597394E-1,8.307367E-3,4.4964522E-2,-3.4257777E-2,-5.9388388E-2,1.4160675E-1,1.4692654E-1,4.8093434E-2],"categories":[],"categories_nodes":[],"categories_segments":[],"categories_sizes":[],"default_left":[0,0,0,0,0,0,0,0,0,0,0,0,0,0,0,0,0,0,0,0,0,0,0,0,0,0,0,0,0],"id":10,"left_children":[1,3,5,7,9,11,13,15,17,19,21,23,25,27,-1,-1,-1,-1,-1,-1,-1,-1,-1,-1,-1,-1,-1,-1,-1],"loss_changes":[1.8919273E4,4.59326E3,4.6270444E3,1.5955059E3,3.1762048E2,3.407195E3,2.4976562E1,5.185547E2,6.54232E2,1.308096E2,4.1251587E1,3.5526396E3,2.4354456E2,8.02587E1,0E0,0E0,0E0,0E0,0E0,0E0,0E0,0E0,0E0,0E0,0E0,0E0,0E0,0E0,0E0],"parents":[2147483647,0,0,1,1,2,2,3,3,4,4,5,5,6,6,7,7,8,8,9,9,10,10,11,11,12,12,13,13],"right_children":[2,4,6,8,10,12,14,16,18,20,22,24,26,28,-1,-1,-1,-1,-1,-1,-1,-1,-1,-1,-1,-1,-1,-1,-1],"split_conditions":[1E0,4.787E3,5.178E3,1E0,8.614E3,1E0,7.298E3,-2.002E3,1E0,4.849E3,1E0,1E0,4.086E3,5.202E3,1.4006795E-1,8.549407E-2,-8.843834E-2,-1.8147413E-2,-8.2044534E-2,1.4639762E-1,7.919217E-3,1.4597394E-1,8.307367E-3,4.4964522E-2,-3.4257777E-2,-5.9388388E-2,1.4160675E-1,1.4692654E-1,4.8093434E-2],"split_indices":[17,1,1,22,1,15,1,1,37,1,36,37,1,1,0,0,0,0,0,0,0,0,0,0,0,0,0,0,0],"split_type":[0,0,0,0,0,0,0,0,0,0,0,0,0,0,0,0,0,0,0,0,0,0,0,0,0,0,0,0,0],"sum_hessian":[8.377603E4,3.2145771E4,5.1630258E4,3.0754848E4,1.3909249E3,4.7759863E4,3.8703975E3,2.2635059E4,8.1197876E3,4.0483932E2,9.860856E2,4.3031598E4,4.7282646E3,3.589126E2,3.5114849E3,1.7198207E2,2.2463078E4,5.9237773E3,2.19601E3,8.581164E1,3.1902768E2,9.636895E2,2.239604E1,3.632704E4,6.70456E3,4.6681094E3,6.0155247E1,2.2898366E2,1.2992894E2],"tree_param":{"num_deleted":"0","num_feature":"45","num_nodes":"29","size_leaf_vector":"1"}},{"base_weights":[-4.8635874E-2,-6.2411034E-1,2.919985E-1,-7.03092E-1,1.0599543E0,2.1405198E-1,1.3214443E0,-8.4010977E-1,-2.8091738E-1,3.1981194E-1,1.3540132E0,1.2323569E0,1.4684294E-1,1.060073E0,1.3489452E-1,-9.8483555E-2,-6.752248E-2,1.951646E-1,-3.1391002E-2,1.2945296E-1,2.698164E-3,1.3837455E-1,2.180453E-2,-5.519239E-3,1.5326509E-1,-4.09089E-2,2.4648787E-2,1.4050053E-1,4.7150504E-2],"categories":[],"categories_nodes":[],"categories_segments":[],"categories_sizes":[],"default_left":[0,0,0,0,0,0,0,0,0,0,0,0,0,0,0,0,0,0,0,0,0,0,0,0,0,0,0,0,0],"id":11,"left_children":[1,3,5,7,9,11,13,15,17,19,21,23,25,27,-1,-1,-1,-1,-1,-1,-1,-1,-1,-1,-1,-1,-1,-1,-1],"loss_changes":[1.6064352E4,4.0537246E3,4.1304653E3,1.683456E3,2.9675305E2,3.2750857E3,2.461377E1,5.23709E2,5.2605084E2,1.1115489E2,3.269336E1,1.1456616E3,2.4870754E3,7.031366E1,0E0,0E0,0E0,0E0,0E0,0E0,0E0,0E0,0E0,0E0,0E0,0E0,0E0,0E0,0E0],"parents":[2147483647,0,0,1,1,2,2,3,3,4,4,5,5,6,6,7,7,8,8,9,9,10,10,11,11,12,12,13,13],"right_children":[2,4,6,8,10,12,14,16,18,20,22,24,26,28,-1,-1,-1,-1,-1,-1,-1,-1,-1,-1,-1,-1,-1,-1,-1],"split_conditions":[1E0,4.787E3,5.178E3,4.4E1,7.688E3,-1.762E3,7.298E3,1E0,-2.205E3,4.849E3,1E0,-1.98E3,4E1,5.202E3,1.3489452E-1,-9.8483555E-2,-6.752248E-2,1.951646E-1,-3.1391002E-2,1.2945296E-1,2.698164E-3,1.3837455E-1,2.180453E-2,-5.519239E-3,1.5326509E-1,-4.09089E-2,2.4648787E-2,1.4050053E-1,4.7150504E-2],"split_indices":[17,1,1,0,1,1,1,26,1,1,36,1,0,1,0,0,0,0,0,0,0,0,0,0,0,0,0,0,0],"split_type":[0,0,0,0,0,0,0,0,0,0,0,0,0,0,0,0,0,0,0,0,0,0,0,0,0,0,0,0,0],"sum_hessian":[8.194801E4,3.0470207E4,5.1477805E4,2.9105746E4,1.3644597E3,4.7855535E4,3.6222693E3,2.1973277E4,7.1324697E3,3.885562E2,9.7590344E2,2.961877E3,4.4893656E4,3.4860825E2,3.2736611E3,1.1699349E4,1.0273929E4,1.030212E2,7.0294487E3,8.897441E1,2.9958182E2,9.5079944E2,2.5104E1,5.6030646E2,2.4015703E3,6.823175E3,3.807048E4,2.189214E2,1.2968683E2],"tree_param":{"num_deleted":"0","num_feature":"45","num_nodes":"29","size_leaf_vector":"1"}},{"base_weights":[-4.4835135E-2,1.0289386E-1,-6.279642E-1,1.8075725E-1,-1.1044791E0,-5.358942E-1,-1.009046E0,-9.0365615E-3,5.1645434E-1,-1.1079027E-1,-8.9303784E-2,-6.577901E-1,-2.0104359E-1,-1.0419798E0,-8.573306E-2,-2.944989E-2,2.4740156E-2,5.8122635E-2,4.374745E-3,-8.194476E-2,-4.812839E-2,-1.5813938E-3,-5.2624088E-2,-1.04947165E-1,-7.343506E-2],"categories":[],"categories_nodes":[],"categories_segments":[],"categories_sizes":[],"default_left":[0,0,0,0,0,0,0,0,0,0,0,0,0,0,0,0,0,0,0,0,0,0,0,0,0],"id":12,"left_children":[1,3,5,7,9,11,13,15,17,-1,-1,19,21,23,-1,-1,-1,-1,-1,-1,-1,-1,-1,-1,-1],"loss_changes":[6.9078413E3,6.0149854E3,5.6815576E2,3.8294836E3,1.815918E0,5.328015E2,1.4860352E1,2.8109045E3,6.64645E2,0E0,0E0,2.727202E2,2.099745E2,5.189209E0,0E0,0E0,0E0,0E0,0E0,0E0,0E0,0E0,0E0,0E0,0E0],"parents":[2147483647,0,0,1,1,2,2,3,3,4,4,5,5,6,6,7,7,8,8,11,11,12,12,13,13],"right_children":[2,4,6,8,10,12,14,16,18,-1,-1,20,22,24,-1,-1,-1,-1,-1,-1,-1,-1,-1,-1,-1],"split_conditions":[1E0,1E0,1E0,1E0,1E0,1E0,1E0,1E0,1E0,-1.1079027E-1,-8.9303784E-2,1E0,1E0,1E0,-8.573306E-2,-2.944989E-2,2.4740156E-2,5.8122635E-2,4.374745E-3,-8.194476E-2,-4.812839E-2,-1.5813938E-3,-5.2624088E-2,-1.04947165E-1,-7.343506E-2],"split_indices":[37,36,28,22,10,22,10,24,16,0,0,24,26,13,0,0,0,0,0,0,0,0,0,0,0],"split_type":[0,0,0,0,0,0,0,0,0,0,0,0,0,0,0,0,0,0,0,0,0,0,0,0,0],"sum_hessian":[8.018672E4,6.3979164E4,1.6207557E4,6.0103918E4,3.875247E3,1.3055688E4,3.151869E3,3.8396547E4,2.170737E4,3.8093284E3,6.591885E1,9.570696E3,3.484992E3,2.5848848E3,5.66984E2,1.8169943E4,2.0226604E4,1.9091195E4,2.6161738E3,4.993571E3,4.5771255E3,2.2209856E3,1.2640062E3,2.5210767E3,6.380815E1],"tree_param":{"num_deleted":"0","num_feature":"45","num_nodes":"25","size_leaf_vector":"1"}},{"base_weights":[-4.2113926E-2,-5.784786E-1,2.5324523E-1,-6.539328E-1,9.871868E-1,1.8218295E-1,1.2649149E0,-7.945563E-1,-2.5546148E-1,3.084679E-1,1.2937368E0,1.1338582E0,1.2255462E-1,9.7511077E-1,1.2963562E-1,-8.8564344E-2,-5.0583135E-2,-6.076397E-3,-7.442028E-2,1.1477317E-1,5.973672E-3,7.821436E-2,1.3182737E-1,-7.0926747E-3,1.4261854E-1,1.4690841E-3,5.7936836E-2,1.3467543E-1,4.04527E-2],"categories":[],"categories_nodes":[],"categories_segments":[],"categories_sizes":[],"default_left":[0,0,0,0,0,0,0,0,0,0,0,0,0,0,0,0,0,0,0,0,0,0,0,0,0,0,0,0,0],"id":13,"left_children":[1,3,5,7,9,11,13,15,17,19,21,23,25,27,-1,-1,-1,-1,-1,-1,-1,-1,-1,-1,-1,-1,-1,-1,-1],"loss_changes":[1.255769E4,3.3261123E3,3.674783E3,1.5046484E3,2.6896436E2,2.7103696E3,2.9305176E1,5.215879E2,6.6670337E2,8.429129E1,1.0160156E1,9.919385E2,2.2148308E3,6.993912E1,0E0,0E0,0E0,0E0,0E0,0E0,0E0,0E0,0E0,0E0,0E0,0E0,0E0,0E0,0E0],"parents":[2147483647,0,0,1,1,2,2,3,3,4,4,5,5,6,6,7,7,8,8,9,9,10,10,11,11,12,12,13,13],"right_children":[2,4,6,8,10,12,14,16,18,20,22,24,26,28,-1,-1,-1,-1,-1,-1,-1,-1,-1,-1,-1,-1,-1,-1,-1],"split_conditions":[1E0,4.787E3,5.178E3,4.3E1,8.614E3,-1.762E3,7.298E3,1E0,1E0,4.849E3,2.1E1,-1.98E3,1E0,5.202E3,1.2963562E-1,-8.8564344E-2,-5.0583135E-2,-6.076397E-3,-7.442028E-2,1.1477317E-1,5.973672E-3,7.821436E-2,1.3182737E-1,-7.0926747E-3,1.4261854E-1,1.4690841E-3,5.7936836E-2,1.3467543E-1,4.04527E-2],"split_indices":[17,1,1,0,1,1,1,22,37,1,0,1,10,1,0,0,0,0,0,0,0,0,0,0,0,0,0,0,0],"split_type":[0,0,0,0,0,0,0,0,0,0,0,0,0,0,0,0,0,0,0,0,0,0,0,0,0,0,0,0,0],"sum_hessian":[7.9266305E4,2.8148463E4,5.111784E4,2.6854828E4,1.2936344E3,4.7763957E4,3.3538838E3,1.984898E4,7.0058477E3,4.03117E2,8.905174E2,2.8151892E3,4.494877E4,3.31387E2,3.0224968E3,1.5087195E4,4.7617856E3,5.010831E3,1.9950165E3,9.1332E1,3.11785E2,4.2260704E1,8.482567E2,5.498437E2,2.2653455E3,3.6363562E4,8.585205E3,1.99854E2,1.3153299E2],"tree_param":{"num_deleted":"0","num_feature":"45","num_nodes":"29","size_leaf_vector":"1"}},{"base_weights":[-3.9341167E-2,-5.496792E-1,2.2993825E-1,-7.2295445E-1,-1.4752567E-1,3.0298185E-1,-4.7870725E-1,-7.8575337E-1,-1.3982488E-1,-3.460563E-1,2.978848E-1,-1.9907111E-1,3.8444933E-1,-5.8403164E-1,-2.1773803E-1,-8.071949E-2,3.58441E-2,-2.7308792E-2,5.9556484E-2,-6.3315056E-2,-1.6774079E-2,2.3519624E-2,1.3353162E-1,-2.6598299E-2,5.0797578E-2,2.3776313E-2,6.251705E-2,-7.770164E-2,-5.0985802E-2,-1.2190911E-2,-4.0302727E-2],"categories":[],"categories_nodes":[],"categories_segments":[],"categories_sizes":[],"default_left":[0,0,0,0,0,0,0,0,0,0,0,0,0,0,0,0,0,0,0,0,0,0,0,0,0,0,0,0,0,0,0],"id":14,"left_children":[1,3,5,7,9,11,13,15,17,19,21,23,25,27,29,-1,-1,-1,-1,-1,-1,-1,-1,-1,-1,-1,-1,-1,-1,-1,-1],"loss_changes":[1.065342E4,1.8657466E3,2.6268813E3,6.851582E2,7.132017E2,1.8817305E3,1.302218E2,4.147422E2,1.785765E2,2.854723E2,1.6141373E2,3.0403473E2,1.3975283E3,4.7959106E1,2.419143E1,0E0,0E0,0E0,0E0,0E0,0E0,0E0,0E0,0E0,0E0,0E0,0E0,0E0,0E0,0E0,0E0],"parents":[2147483647,0,0,1,1,2,2,3,3,4,4,5,5,6,6,7,7,8,8,9,9,10,10,11,11,12,12,13,13,14,14],"right_children":[2,4,6,8,10,12,14,16,18,20,22,24,26,28,30,-1,-1,-1,-1,-1,-1,-1,-1,-1,-1,-1,-1,-1,-1,-1,-1],"split_conditions":[1E0,1E0,1E0,1E0,4.6E1,4E1,4.2E1,1E0,1E0,1E0,1E0,1E0,1E0,3.9E1,1E0,-8.071949E-2,3.58441E-2,-2.7308792E-2,5.9556484E-2,-6.3315056E-2,-1.6774079E-2,2.3519624E-2,1.3353162E-1,-2.6598299E-2,5.0797578E-2,2.3776313E-2,6.251705E-2,-7.770164E-2,-5.0985802E-2,-1.2190911E-2,-4.0302727E-2],"split_indices":[17,22,15,10,0,0,0,13,39,26,11,13,22,0,23,0,0,0,0,0,0,0,0,0,0,0,0,0,0,0,0],"split_type":[0,0,0,0,0,0,0,0,0,0,0,0,0,0,0,0,0,0,0,0,0,0,0,0,0,0,0,0,0,0,0],"sum_hessian":[7.75206E4,2.677521E4,5.074539E4,1.8712004E4,8.0632075E3,4.6004094E4,4.741298E3,1.6892459E4,1.8195448E3,5.5774297E3,2.4857776E3,6.4226025E3,3.9581492E4,3.3770986E3,1.3641991E3,1.6582016E4,3.104426E2,1.5409343E3,2.7861047E2,2.1359404E3,3.4414893E3,2.3452864E3,1.4049123E2,5.8679126E3,5.5469025E2,2.4595766E4,1.4985727E4,9.349841E2,2.4421147E3,9.0025714E2,4.63942E2],"tree_param":{"num_deleted":"0","num_feature":"45","num_nodes":"31","size_leaf_vector":"1"}},{"base_weights":[-3.5735935E-2,-5.073436E-1,2.1169838E-1,-6.741747E-1,-8.517397E-2,3.4878632E-1,-8.117469E-2,-8.500671E-1,-4.8410237E-1,6.305191E-2,-5.6643105E-1,4.4197708E-1,-5.4161645E-2,-5.2205604E-1,-9.8010115E-3,-7.217671E-2,-9.7643964E-2,-3.3306506E-2,-7.465904E-2,1.8741243E-2,-4.0427033E-2,-6.3835636E-2,-2.704646E-2,2.7633911E-2,6.435918E-2,-9.896543E-3,8.9889094E-2,-5.9343874E-2,-2.3842137E-2,-8.849109E-3,1.8332167E-2],"categories":[],"categories_nodes":[],"categories_segments":[],"categories_sizes":[],"default_left":[0,0,0,0,0,0,0,0,0,0,0,0,0,0,0,0,0,0,0,0,0,0,0,0,0,0,0,0,0,0,0],"id":15,"left_children":[1,3,5,7,9,11,13,15,17,19,21,23,25,27,29,-1,-1,-1,-1,-1,-1,-1,-1,-1,-1,-1,-1,-1,-1,-1,-1],"loss_changes":[8.892776E3,1.8469385E3,2.0068225E3,6.279873E2,5.299812E2,1.2785181E3,5.0150095E2,1.5755469E2,3.5799878E2,3.3021024E2,3.7068115E1,9.232573E2,2.7319952E2,4.4817566E1,2.0848326E2,0E0,0E0,0E0,0E0,0E0,0E0,0E0,0E0,0E0,0E0,0E0,0E0,0E0,0E0,0E0,0E0],"parents":[2147483647,0,0,1,1,2,2,3,3,4,4,5,5,6,6,7,7,8,8,9,9,10,10,11,11,12,12,13,13,14,14],"right_children":[2,4,6,8,10,12,14,16,18,20,22,24,26,28,30,-1,-1,-1,-1,-1,-1,-1,-1,-1,-1,-1,-1,-1,-1,-1,-1],"split_conditions":[1E0,4.3E1,1E0,1E0,1E0,1E0,4E1,1E0,1E0,1E0,1E0,4.2E1,1E0,1E0,1E0,-7.217671E-2,-9.7643964E-2,-3.3306506E-2,-7.465904E-2,1.8741243E-2,-4.0427033E-2,-6.3835636E-2,-2.704646E-2,2.7633911E-2,6.435918E-2,-9.896543E-3,8.9889094E-2,-5.9343874E-2,-2.3842137E-2,-8.849109E-3,1.8332167E-2],"split_indices":[29,0,12,26,23,23,0,28,23,12,39,0,2,39,39,0,0,0,0,0,0,0,0,0,0,0,0,0,0,0,0],"split_type":[0,0,0,0,0,0,0,0,0,0,0,0,0,0,0,0,0,0,0,0,0,0,0,0,0,0,0,0,0,0,0],"sum_hessian":[7.620538E4,2.6223178E4,4.9982203E4,1.8795184E4,7.427993E3,3.404584E4,1.593636E4,9.759916E3,9.035269E3,5.67957E3,1.7484231E3,2.7650863E4,6.3949775E3,2.21957E3,1.3716791E4,4.8463545E3,4.9135615E3,5.7366387E3,3.29863E3,4.486305E3,1.193265E3,1.4056641E3,3.4275903E2,1.5181097E4,1.2469767E4,6.1086987E3,2.862788E2,1.7724124E3,4.4715775E2,9.74615E3,3.97064E3],"tree_param":{"num_deleted":"0","num_feature":"45","num_nodes":"31","size_leaf_vector":"1"}},{"base_weights":[-3.3571314E-2,-4.786512E-1,1.9061601E-1,-5.5766046E-1,9.9784595E-1,1.2657386E-1,1.2092433E0,-6.769537E-1,-1.1528075E-1,3.1210414E-1,1.2404147E0,1.0329626E0,7.3266014E-2,9.231894E-1,1.2415703E-1,1.2819491E-1,-6.954141E-2,1.5571283E-1,-1.4954609E-2,1.09153464E-1,3.2279994E-3,1.2647672E-1,6.9463275E-2,-9.559106E-3,1.3268661E-1,1.3882366E-2,-5.52885E-2,1.2789911E-1,4.1568812E-2],"categories":[],"categories_nodes":[],"categories_segments":[],"categories_sizes":[],"default_left":[0,0,0,0,0,0,0,0,0,0,0,0,0,0,0,0,0,0,0,0,0,0,0,0,0,0,0,0,0],"id":16,"left_children":[1,3,5,7,9,11,13,15,17,19,21,23,25,27,-1,-1,-1,-1,-1,-1,-1,-1,-1,-1,-1,-1,-1,-1,-1],"loss_changes":[7.501798E3,2.938463E3,3.2614932E3,1.2614902E3,2.1245166E2,2.27288E3,2.620166E1,6.8175684E2,2.9125958E2,7.317835E1,1.16796875E1,8.668032E2,1.8238835E3,5.439392E1,0E0,0E0,0E0,0E0,0E0,0E0,0E0,0E0,0E0,0E0,0E0,0E0,0E0,0E0,0E0],"parents":[2147483647,0,0,1,1,2,2,3,3,4,4,5,5,6,6,7,7,8,8,9,9,10,10,11,11,12,12,13,13],"right_children":[2,4,6,8,10,12,14,16,18,20,22,24,26,28,-1,-1,-1,-1,-1,-1,-1,-1,-1,-1,-1,-1,-1,-1,-1],"split_conditions":[1E0,4.787E3,5.178E3,4.7E1,7.298E3,-1.824E3,7.298E3,-2.002E3,-2.002E3,4.849E3,1E0,-1.98E3,1E0,5.202E3,1.2415703E-1,1.2819491E-1,-6.954141E-2,1.5571283E-1,-1.4954609E-2,1.09153464E-1,3.2279994E-3,1.2647672E-1,6.9463275E-2,-9.559106E-3,1.3268661E-1,1.3882366E-2,-5.52885E-2,1.2789911E-1,4.1568812E-2],"split_indices":[29,1,1,0,1,1,1,1,1,1,15,1,15,1,0,0,0,0,0,0,0,0,0,0,0,0,0,0,0],"split_type":[0,0,0,0,0,0,0,0,0,0,0,0,0,0,0,0,0,0,0,0,0,0,0,0,0,0,0,0,0],"sum_hessian":[7.518051E4,2.518316E4,4.9997348E4,2.3904615E4,1.2785441E3,4.704096E4,2.95639E3,1.8827117E4,5.077498E3,3.346828E2,9.438612E2,2.6119429E3,4.4429016E4,3.031793E2,2.6532104E3,1.751286E2,1.8651988E4,1.01049934E2,4.976448E3,8.764712E1,2.4703569E2,9.022846E2,4.15766E1,5.398108E2,2.072132E3,4.02189E4,4.210117E3,1.7733334E2,1.2584596E2],"tree_param":{"num_deleted":"0","num_feature":"45","num_nodes":"29","size_leaf_vector":"1"}},{"base_weights":[-3.1005267E-2,-4.6236432E-1,1.7126842E-1,-6.4353174E-1,-7.9604834E-2,2.3226131E-1,-4.4020385E-1,-8.488037E-1,-4.3492463E-1,6.7740707E-3,-7.3261946E-1,1.0517696E-1,4.5418397E-1,-4.9778274E-1,-2.2219785E-1,-6.805383E-2,-9.569184E-2,-5.351872E-2,-2.1788055E-2,-2.1885352E-3,6.1874013E-2,-7.589438E-2,1.6897753E-2,4.778582E-3,3.9541207E-2,5.1617693E-2,2.9916665E-2,-4.839942E-2,-1.1627575E-1,-2.3559764E-2,5.7657834E-2],"categories":[],"categories_nodes":[],"categories_segments":[],"categories_sizes":[],"default_left":[0,0,0,0,0,0,0,0,0,0,0,0,0,0,0,0,0,0,0,0,0,0,0,0,0,0,0,0,0,0,0],"id":17,"left_children":[1,3,5,7,9,11,13,15,17,19,21,23,25,27,29,-1,-1,-1,-1,-1,-1,-1,-1,-1,-1,-1,-1,-1,-1,-1,-1],"loss_changes":[6.428219E3,1.6308203E3,1.8706577E3,6.831836E2,4.2625778E2,1.2861907E3,5.69964E1,1.4569775E2,1.7221655E2,1.1708288E2,2.1081085E1,4.8305066E2,1.5943335E2,3.2428284E1,1.0329086E1,0E0,0E0,0E0,0E0,0E0,0E0,0E0,0E0,0E0,0E0,0E0,0E0,0E0,0E0,0E0,0E0],"parents":[2147483647,0,0,1,1,2,2,3,3,4,4,5,5,6,6,7,7,8,8,9,9,10,10,11,11,12,12,13,13,14,14],"right_children":[2,4,6,8,10,12,14,16,18,20,22,24,26,28,30,-1,-1,-1,-1,-1,-1,-1,-1,-1,-1,-1,-1,-1,-1,-1,-1],"split_conditions":[1E0,1E0,1E0,1E0,1E0,1E0,1E0,1E0,1E0,1E0,1E0,1E0,1E0,1E0,1E0,-6.805383E-2,-9.569184E-2,-5.351872E-2,-2.1788055E-2,-2.1885352E-3,6.1874013E-2,-7.589438E-2,1.6897753E-2,4.778582E-3,3.9541207E-2,5.1617693E-2,2.9916665E-2,-4.839942E-2,-1.1627575E-1,-2.3559764E-2,5.7657834E-2],"split_indices":[17,22,15,26,28,22,40,19,16,6,40,40,14,36,2,0,0,0,0,0,0,0,0,0,0,0,0,0,0,0,0],"split_type":[0,0,0,0,0,0,0,0,0,0,0,0,0,0,0,0,0,0,0,0,0,0,0,0,0,0,0,0,0,0,0],"sum_hessian":[7.367177E4,2.3517727E4,5.0154047E4,1.5961948E4,7.555778E3,4.5605617E4,4.54843E3,8.043739E3,7.91821E3,6.6739556E3,8.818222E2,2.9000125E4,1.6605492E4,3.597096E3,9.5133405E2,3.1494106E3,4.894328E3,5.415212E3,2.502998E3,6.3763066E3,2.9764914E2,8.569594E2,2.4862803E1,2.421334E4,4.7867856E3,1.1860165E4,4.7453276E3,3.5257166E3,7.137943E1,9.363318E2,1.50023E1],"tree_param":{"num_deleted":"0","num_feature":"45","num_nodes":"31","size_leaf_vector":"1"}},{"base_weights":[-3.0328711E-2,-4.3630475E-1,1.5344544E-1,-5.140166E-1,9.445958E-1,9.474694E-2,1.1734065E0,-7.66185E-1,-3.0807608E-1,3.6014333E-1,1.2316753E0,9.650049E-1,4.640727E-2,8.827175E-1,1.20890714E-1,8.9477986E-2,-7.8337796E-2,1.2170843E-1,-3.341575E-2,9.876507E-2,1.3310783E-2,1.2668899E-1,5.642206E-3,-1.0899051E-2,1.260627E-1,-5.878362E-4,7.239079E-2,1.2620865E-1,3.7138175E-2],"categories":[],"categories_nodes":[],"categories_segments":[],"categories_sizes":[],"default_left":[0,0,0,0,0,0,0,0,0,0,0,0,0,0,0,0,0,0,0,0,0,0,0,0,0,0,0,0,0],"id":18,"left_children":[1,3,5,7,9,11,13,15,17,19,21,23,25,27,-1,-1,-1,-1,-1,-1,-1,-1,-1,-1,-1,-1,-1,-1,-1],"loss_changes":[5.42819E3,2.4334507E3,2.9984585E3,1.1144536E3,2.0228345E2,1.9922996E3,2.7057861E1,2.7623535E2,4.7046497E2,5.6771E1,3.3444946E1,7.9140186E2,1.5894205E3,5.778972E1,0E0,0E0,0E0,0E0,0E0,0E0,0E0,0E0,0E0,0E0,0E0,0E0,0E0,0E0,0E0],"parents":[2147483647,0,0,1,1,2,2,3,3,4,4,5,5,6,6,7,7,8,8,9,9,10,10,11,11,12,12,13,13],"right_children":[2,4,6,8,10,12,14,16,18,20,22,24,26,28,-1,-1,-1,-1,-1,-1,-1,-1,-1,-1,-1,-1,-1,-1,-1],"split_conditions":[1E0,4.676E3,5.178E3,1E0,8.614E3,-1.824E3,7.298E3,-2.002E3,-2.002E3,4.849E3,1E0,-1.98E3,1E0,5.202E3,1.20890714E-1,8.9477986E-2,-7.8337796E-2,1.2170843E-1,-3.341575E-2,9.876507E-2,1.3310783E-2,1.2668899E-1,5.642206E-3,-1.0899051E-2,1.260627E-1,-5.878362E-4,7.239079E-2,1.2620865E-1,3.7138175E-2],"split_indices":[17,1,1,26,1,1,1,1,1,1,36,1,13,1,0,0,0,0,0,0,0,0,0,0,0,0,0,0,0],"split_type":[0,0,0,0,0,0,0,0,0,0,0,0,0,0,0,0,0,0,0,0,0,0,0,0,0,0,0,0,0],"sum_hessian":[7.275433E4,2.2670807E4,5.0083523E4,2.1463547E4,1.2072596E3,4.7359113E4,2.7244119E3,9.647606E3,1.1815941E4,3.9840955E2,8.088501E2,2.4911963E3,4.4867918E4,2.993245E2,2.4250874E3,9.831803E1,9.549288E3,1.9789655E2,1.1618045E4,1.0495963E2,2.9344992E2,7.852436E2,2.360655E1,5.3784314E2,1.9533531E3,4.165427E4,3.2136477E3,1.709933E2,1.2833118E2],"tree_param":{"num_deleted":"0","num_feature":"45","num_nodes":"29","size_leaf_vector":"1"}},{"base_weights":[-2.4362423E-2,9.857635E-2,-5.5707335E-1,-4.3255374E-1,2.156404E-1,-7.8021264E-1,-3.7204587E-1,-3.2126886E-1,-1.0675218E0,3.5144868E-1,-7.869446E-2,-8.548829E-1,-4.6974516E-1,-4.753013E-1,2.0055727E-3,-1.9920202E-2,-5.6521475E-2,-1.0692423E-1,5.4486673E-2,4.647451E-2,-3.970274E-2,-4.7864042E-2,3.2387376E-3,-9.151655E-2,-6.4730406E-2,-3.5309084E-2,-8.0859505E-2,-5.1065642E-2,2.7871808E-2,-5.060619E-2,7.975624E-3],"categories":[],"categories_nodes":[],"categories_segments":[],"categories_sizes":[],"default_left":[0,0,0,0,0,0,0,0,0,0,0,0,0,0,0,0,0,0,0,0,0,0,0,0,0,0,0,0,0,0,0],"id":19,"left_children":[1,3,5,7,9,11,13,15,17,19,21,23,25,27,29,-1,-1,-1,-1,-1,-1,-1,-1,-1,-1,-1,-1,-1,-1,-1,-1],"loss_changes":[4.6838994E3,3.6131313E3,5.533862E2,7.412549E2,1.9033745E3,1.4050806E2,2.832312E2,2.6584167E2,4.9227295E0,2.763149E3,6.67946E2,6.070581E1,4.6384125E1,1.5334436E2,6.274631E1,0E0,0E0,0E0,0E0,0E0,0E0,0E0,0E0,0E0,0E0,0E0,0E0,0E0,0E0,0E0,0E0],"parents":[2147483647,0,0,1,1,2,2,3,3,4,4,5,5,6,6,7,7,8,8,9,9,10,10,11,11,12,12,13,13,14,14],"right_children":[2,4,6,8,10,12,14,16,18,20,22,24,26,28,30,-1,-1,-1,-1,-1,-1,-1,-1,-1,-1,-1,-1,-1,-1,-1,-1],"split_conditions":[1E0,3.9E1,1E0,1E0,1E0,5E1,1E0,1E0,1E0,1E0,1E0,1E0,1E0,1E0,3.9E1,-1.9920202E-2,-5.6521475E-2,-1.0692423E-1,5.4486673E-2,4.647451E-2,-3.970274E-2,-4.7864042E-2,3.2387376E-3,-9.151655E-2,-6.4730406E-2,-3.5309084E-2,-8.0859505E-2,-5.1065642E-2,2.7871808E-2,-5.060619E-2,7.975624E-3],"split_indices":[37,0,17,36,12,0,10,12,13,15,17,10,23,13,0,0,0,0,0,0,0,0,0,0,0,0,0,0,0,0,0],"split_type":[0,0,0,0,0,0,0,0,0,0,0,0,0,0,0,0,0,0,0,0,0,0,0,0,0,0,0,0,0,0,0],"sum_hessian":[7.15181E4,5.8108633E4,1.3409469E4,1.049395E4,4.7614684E4,6.0772334E3,7.3322354E3,8.930322E3,1.5636273E3,3.2581258E4,1.5033427E4,4.8975693E3,1.1796641E3,5.7458467E3,1.5863885E3,5.9532314E3,2.9770908E3,1.5622972E3,1.3301629E0,2.829816E4,4.2830977E3,3.2670886E3,1.1766338E4,3.792723E3,1.1048462E3,8.7907196E2,3.0059216E2,5.4888057E3,2.570411E2,2.0981674E2,1.3765718E3],"tree_param":{"num_deleted":"0","num_feature":"45","num_nodes":"31","size_leaf_vector":"1"}},{"base_weights":[-2.43101E-2,-3.8864514E-1,1.3196543E-1,-5.588233E-1,-1.4140425E-2,2.1178356E-1,-3.3578795E-1,-4.4901004E-1,-9.2651755E-1,1.515117E-1,-5.150767E-1,2.6475546E-1,-3.2802555E-1,-4.5294502E-1,-1.4462201E-1,-3.4081522E-2,-7.9778604E-2,-9.364312E-2,-3.261704E-2,1.1584968E-2,1.1806705E-1,-5.5880416E-2,2.0961735E-2,-1.5065585E-2,3.2623593E-2,-4.122787E-2,1.134086E-3,-4.748192E-2,2.0602988E-2,-1.7111473E-2,4.8297476E-2],"categories":[],"categories_nodes":[],"categories_segments":[],"categories_sizes":[],"default_left":[0,0,0,0,0,0,0,0,0,0,0,0,0,0,0,0,0,0,0,0,0,0,0,0,0,0,0,0,0,0,0],"id":20,"left_children":[1,3,5,7,9,11,13,15,17,19,21,23,25,27,29,-1,-1,-1,-1,-1,-1,-1,-1,-1,-1,-1,-1,-1,-1,-1,-1],"loss_changes":[4.0217522E3,1.351324E3,1.8456423E3,5.8823145E2,5.4988196E2,1.2075684E3,1.613241E2,4.2341846E2,1.9642822E1,1.8263486E2,5.2300964E1,9.8216406E2,1.0791235E2,6.449341E1,4.563376E1,0E0,0E0,0E0,0E0,0E0,0E0,0E0,0E0,0E0,0E0,0E0,0E0,0E0,0E0,0E0,0E0],"parents":[2147483647,0,0,1,1,2,2,3,3,4,4,5,5,6,6,7,7,8,8,9,9,10,10,11,11,12,12,13,13,14,14],"right_children":[2,4,6,8,10,12,14,16,18,20,22,24,26,28,30,-1,-1,-1,-1,-1,-1,-1,-1,-1,-1,-1,-1,-1,-1,-1,-1],"split_conditions":[1E0,4.3E1,1E0,1E0,1E0,1E0,4.3E1,1E0,1E0,1E0,1E0,3.7E1,5E1,1E0,1E0,-3.4081522E-2,-7.9778604E-2,-9.364312E-2,-3.261704E-2,1.1584968E-2,1.1806705E-1,-5.5880416E-2,2.0961735E-2,-1.5065585E-2,3.2623593E-2,-4.122787E-2,1.134086E-3,-4.748192E-2,2.0602988E-2,-1.7111473E-2,4.8297476E-2],"split_indices":[17,0,37,28,37,15,0,37,13,11,13,0,0,13,13,0,0,0,0,0,0,0,0,0,0,0,0,0,0,0,0],"split_type":[0,0,0,0,0,0,0,0,0,0,0,0,0,0,0,0,0,0,0,0,0,0,0,0,0,0,0,0,0,0,0],"sum_hessian":[7.063366E4,2.120218E4,4.9431473E4,1.4577533E4,6.624647E3,4.2226438E4,7.2050347E3,1.1226823E4,3.3507102E3,4.9788975E3,1.6457493E3,3.8453477E4,3.7729614E3,4.466405E3,2.73863E3,8.570211E3,2.6566128E3,3.2957273E3,5.4982933E1,4.813224E3,1.6567348E2,1.552313E3,9.343634E1,4.9572007E3,3.3496277E4,3.0223901E3,7.505713E2,4.3231797E3,1.4322539E2,2.6284045E3,1.1022535E2],"tree_param":{"num_deleted":"0","num_feature":"45","num_nodes":"31","size_leaf_vector":"1"}},{"base_weights":[-2.309859E-2,-3.6088023E-1,1.1761485E-1,-5.468072E-1,-8.997047E-3,2.3617378E-1,-1.2677953E-1,-7.6897925E-1,-3.4727687E-1,-1.522201E-1,2.9422155E-1,3.2353166E-1,-3.603828E-1,-4.6690676E-1,-7.310748E-2,-5.812071E-2,-9.0245984E-2,-4.649419E-2,7.0698853E-3,-4.0374666E-2,-1.7397105E-3,3.621758E-2,-2.8573642E-2,5.3148903E-2,1.20280525E-2,-6.649037E-2,-2.8857341E-2,-5.3650927E-2,-1.9417658E-2,-1.4131284E-2,9.255726E-3],"categories":[],"categories_nodes":[],"categories_segments":[],"categories_sizes":[],"default_left":[0,0,0,0,0,0,0,0,0,0,0,0,0,0,0,0,0,0,0,0,0,0,0,0,0,0,0,0,0,0,0],"id":21,"left_children":[1,3,5,7,9,11,13,15,17,19,21,23,25,27,29,-1,-1,-1,-1,-1,-1,-1,-1,-1,-1,-1,-1,-1,-1,-1,-1],"loss_changes":[3.3201187E3,1.343938E3,1.4288159E3,5.95542E2,3.0849435E2,1.7304923E3,2.940234E2,1.5884473E2,3.483719E2,1.6360446E2,8.991701E1,1.224134E3,9.256232E1,4.156714E1,1.572284E2,0E0,0E0,0E0,0E0,0E0,0E0,0E0,0E0,0E0,0E0,0E0,0E0,0E0,0E0,0E0,0E0],"parents":[2147483647,0,0,1,1,2,2,3,3,4,4,5,5,6,6,7,7,8,8,9,9,10,10,11,11,12,12,13,13,14,14],"right_children":[2,4,6,8,10,12,14,16,18,20,22,24,26,28,30,-1,-1,-1,-1,-1,-1,-1,-1,-1,-1,-1,-1,-1,-1,-1,-1],"split_conditions":[1E0,1E0,1E0,1E0,5E1,1E0,4E1,1E0,4.9E1,1E0,1E0,1E0,3.9E1,1E0,1E0,-5.812071E-2,-9.0245984E-2,-4.649419E-2,7.0698853E-3,-4.0374666E-2,-1.7397105E-3,3.621758E-2,-2.8573642E-2,5.3148903E-2,1.20280525E-2,-6.649037E-2,-2.8857341E-2,-5.3650927E-2,-1.9417658E-2,-1.4131284E-2,9.255726E-3],"split_indices":[17,22,12,26,0,15,0,19,0,26,12,14,0,39,39,0,0,0,0,0,0,0,0,0,0,0,0,0,0,0,0],"split_type":[0,0,0,0,0,0,0,0,0,0,0,0,0,0,0,0,0,0,0,0,0,0,0,0,0,0,0,0,0,0,0],"sum_hessian":[6.985062E4,2.0540861E4,4.9309758E4,1.3439292E4,7.101569E3,3.3202715E4,1.6107041E4,6.357511E3,7.0817803E3,4.823651E3,2.2779177E3,2.8962059E4,4.240656E3,2.1942258E3,1.3912815E4,2.6437725E3,3.7137388E3,5.5260273E3,1.5557532E3,1.6825957E3,3.1410552E3,2.0393417E3,2.3857616E2,1.4314499E4,1.4647561E4,8.076038E2,3.433052E3,1.747329E3,4.4689685E2,9.855417E3,4.0573987E3],"tree_param":{"num_deleted":"0","num_feature":"45","num_nodes":"31","size_leaf_vector":"1"}},{"base_weights":[-1.9563252E-2,-7.7538826E-2,1.0906868E0,-3.978741E-1,5.737366E-2,5.633066E-1,1.1695466E0,-5.605056E-1,-8.57608E-2,8.8479394E-1,1.3855702E-2,1.22646384E-1,2.1826254E-1,1.1765211E0,3.919606E-1,-7.305728E-2,-2.9204518E-2,1.4912103E-1,-1.1831633E-2,-1.2891675E-2,1.1918809E-1,1.18657965E-2,-1.9429423E-2,3.7495207E-2,-2.636213E-2,1.1842263E-1,1.0119368E-1,1.6354442E-1,-9.5071696E-2],"categories":[],"categories_nodes":[],"categories_segments":[],"categories_sizes":[],"default_left":[0,0,0,0,0,0,0,0,0,0,0,0,0,0,0,0,0,0,0,0,0,0,0,0,0,0,0,0,0],"id":22,"left_children":[1,3,5,7,9,11,13,15,17,19,21,-1,23,25,27,-1,-1,-1,-1,-1,-1,-1,-1,-1,-1,-1,-1,-1,-1],"loss_changes":[4.435292E3,2.8301455E3,1.4155908E2,9.850342E2,1.659224E3,1.0195714E2,1.5666992E1,5.8229517E2,3.4154663E2,7.169026E2,9.5503613E2,0E0,2.2378628E1,2.53833E0,4.8196556E1,0E0,0E0,0E0,0E0,0E0,0E0,0E0,0E0,0E0,0E0,0E0,0E0,0E0,0E0],"parents":[2147483647,0,0,1,1,2,2,3,3,4,4,5,5,6,6,7,7,8,8,9,9,10,10,12,12,13,13,14,14],"right_children":[2,4,6,8,10,12,14,16,18,20,22,-1,24,26,28,-1,-1,-1,-1,-1,-1,-1,-1,-1,-1,-1,-1,-1,-1],"split_conditions":[5.178E3,1E0,7.298E3,1E0,-1.762E3,5.202E3,1E0,1E0,-2.002E3,-1.98E3,1E0,1.22646384E-1,6.849E3,1E0,2.5036E4,-7.305728E-2,-2.9204518E-2,1.4912103E-1,-1.1831633E-2,-1.2891675E-2,1.1918809E-1,1.18657965E-2,-1.9429423E-2,3.7495207E-2,-2.636213E-2,1.1842263E-1,1.0119368E-1,1.6354442E-1,-9.5071696E-2],"split_indices":[1,29,1,22,1,1,36,24,1,1,12,0,1,30,1,0,0,0,0,0,0,0,0,0,0,0,0,0,0],"split_type":[0,0,0,0,0,0,0,0,0,0,0,0,0,0,0,0,0,0,0,0,0,0,0,0,0,0,0,0,0],"sum_hessian":[6.8903586E4,6.5484984E4,3.4185964E3,1.9405871E4,4.6079113E4,4.457508E2,2.9728455E3,1.2757552E4,6.64832E3,2.301458E3,4.3777656E4,1.516783E2,2.9407248E2,2.9459097E3,2.6935904E1,7.8089414E3,4.94861E3,1.3356776E2,6.5147524E3,5.3522656E2,1.7662314E3,2.9117564E4,1.4660092E4,2.220821E2,7.199038E1,2.8082434E3,1.3766621E2,1.3871319E1,1.3064585E1],"tree_param":{"num_deleted":"0","num_feature":"45","num_nodes":"29","size_leaf_vector":"1"}},{"base_weights":[-2.0441089E-2,-4.4000655E-1,6.881673E-2,-7.051596E-1,-2.3952785E-1,1.5951727E-1,-2.1309474E-1,-6.1493534E-1,-1.0314406E0,-3.2120052E-1,8.221962E-2,1.1172055E-1,5.98497E-1,-5.342144E-1,-6.8453535E-2,-7.1969025E-2,-3.5461824E-2,-1.0328509E-1,1.676139E-2,-4.116377E-2,-1.0463903E-2,2.6403212E-3,6.0497314E-2,1.1028333E-3,3.918486E-2,6.6568E-2,2.8201377E-2,-5.9853822E-2,7.7834562E-3,-2.7621381E-3,-4.13238E-2],"categories":[],"categories_nodes":[],"categories_segments":[],"categories_sizes":[],"default_left":[0,0,0,0,0,0,0,0,0,0,0,0,0,0,0,0,0,0,0,0,0,0,0,0,0,0,0,0,0,0,0],"id":23,"left_children":[1,3,5,7,9,11,13,15,17,19,21,23,25,27,29,-1,-1,-1,-1,-1,-1,-1,-1,-1,-1,-1,-1,-1,-1,-1,-1],"loss_changes":[2.545894E3,6.3375635E2,1.4333806E3,1.5050269E2,1.785173E2,8.8981604E2,6.3376624E2,1.0948633E2,2.0512695E0,1.0605963E2,4.0131084E1,1.0788722E3,8.835339E1,1.6687415E2,1.3245386E2,0E0,0E0,0E0,0E0,0E0,0E0,0E0,0E0,0E0,0E0,0E0,0E0,0E0,0E0,0E0,0E0],"parents":[2147483647,0,0,1,1,2,2,3,3,4,4,5,5,6,6,7,7,8,8,9,9,10,10,11,11,12,12,13,13,14,14],"right_children":[2,4,6,8,10,12,14,16,18,20,22,24,26,28,30,-1,-1,-1,-1,-1,-1,-1,-1,-1,-1,-1,-1,-1,-1,-1,-1],"split_conditions":[4E1,1E0,1E0,1E0,1E0,1E0,1E0,1E0,1E0,1E0,1E0,1E0,1E0,1E0,1E0,-7.1969025E-2,-3.5461824E-2,-1.0328509E-1,1.676139E-2,-4.116377E-2,-1.0463903E-2,2.6403212E-3,6.0497314E-2,1.1028333E-3,3.918486E-2,6.6568E-2,2.8201377E-2,-5.9853822E-2,7.7834562E-3,-2.7621381E-3,-4.13238E-2],"split_indices":[0,29,23,36,39,13,29,22,13,22,13,10,3,10,7,0,0,0,0,0,0,0,0,0,0,0,0,0,0,0,0],"split_type":[0,0,0,0,0,0,0,0,0,0,0,0,0,0,0,0,0,0,0,0,0,0,0,0,0,0,0,0,0,0,0],"sum_hessian":[6.798025E4,1.1924411E4,5.605584E4,5.132996E3,6.7914155E3,4.2411156E4,1.3644682E4,4.0233352E3,1.1096609E3,5.41649E3,1.3749252E3,3.8247926E4,4.1632324E3,4.236495E3,9.408187E3,2.8676084E3,1.1557266E3,1.1084957E3,1.1651685E0,3.8202388E3,1.5962515E3,1.2432311E3,1.3169409E2,2.8135602E4,1.0112322E4,3.4333074E3,7.2992523E2,3.8336194E3,4.0287573E2,8.412938E3,9.952479E2],"tree_param":{"num_deleted":"0","num_feature":"45","num_nodes":"31","size_leaf_vector":"1"}},{"base_weights":[-1.8304687E-2,7.964856E-2,-4.731611E-1,1.1883016E-1,-1.0283607E0,-6.9142425E-1,-3.223874E-1,-7.037409E-3,3.0975717E-1,-1.0111053E0,-1.1402529E-1,-7.78056E-1,-3.7998056E-1,-3.999789E-1,-5.4007705E-2,4.581238E-3,-4.537743E-2,4.0168922E-2,7.000565E-3,-1.0161161E-1,-7.885368E-2,-8.514317E-2,-5.540976E-2,-5.3298503E-2,-1.644427E-2,-4.2672362E-2,1.606295E-2,-1.9035006E-2,1.1841427E-2],"categories":[],"categories_nodes":[],"categories_segments":[],"categories_sizes":[],"default_left":[0,0,0,0,0,0,0,0,0,0,0,0,0,0,0,0,0,0,0,0,0,0,0,0,0,0,0,0,0],"id":24,"left_children":[1,3,5,7,9,11,13,15,17,19,-1,21,23,25,27,-1,-1,-1,-1,-1,-1,-1,-1,-1,-1,-1,-1,-1,-1],"loss_changes":[3.0054182E3,2.4096794E3,3.931106E2,1.288275E3,2.5072021E0,1.3143579E2,1.4722467E2,7.6284503E2,4.6942444E2,1.0402832E0,0E0,6.2284668E1,3.501747E1,8.230707E1,3.7329914E1,0E0,0E0,0E0,0E0,0E0,0E0,0E0,0E0,0E0,0E0,0E0,0E0,0E0,0E0],"parents":[2147483647,0,0,1,1,2,2,3,3,4,4,5,5,6,6,7,7,8,8,9,9,11,11,12,12,13,13,14,14],"right_children":[2,4,6,8,10,12,14,16,18,20,-1,22,24,26,28,-1,-1,-1,-1,-1,-1,-1,-1,-1,-1,-1,-1,-1,-1],"split_conditions":[1E0,1E0,1E0,4.2E1,1E0,5E1,1E0,1E0,1E0,1E0,-1.1402529E-1,1E0,1E0,1E0,4.4E1,4.581238E-3,-4.537743E-2,4.0168922E-2,7.000565E-3,-1.0161161E-1,-7.885368E-2,-8.514317E-2,-5.540976E-2,-5.3298503E-2,-1.644427E-2,-4.2672362E-2,1.606295E-2,-1.9035006E-2,1.1841427E-2],"split_indices":[37,36,17,0,29,0,10,15,12,10,0,10,22,13,0,0,0,0,0,0,0,0,0,0,0,0,0,0,0],"split_type":[0,0,0,0,0,0,0,0,0,0,0,0,0,0,0,0,0,0,0,0,0,0,0,0,0,0,0,0,0],"sum_hessian":[6.745278E4,5.550139E4,1.1951391E4,5.360664E4,1.8947535E3,4.8813945E3,7.069996E3,3.2308443E4,2.1298197E4,1.6502905E3,2.4446298E2,3.8179019E3,1.0634927E3,5.4840166E3,1.5859794E3,2.8891432E4,3.4170115E3,1.5394532E4,5.9036646E3,1.6104686E3,3.9821934E1,2.8736155E3,9.4428625E2,6.211105E2,4.423822E2,5.2345337E3,2.4948293E2,8.8559375E2,7.0038556E2],"tree_param":{"num_deleted":"0","num_feature":"45","num_nodes":"29","size_leaf_vector":"1"}},{"base_weights":[-1.4297423E-2,7.433161E-2,-4.3779105E-1,-3.1609577E-1,1.5249646E-1,-6.586197E-1,-2.9241663E-1,-5.9468085E-1,-1.5656681E-1,2.5404575E-1,-6.8522654E-2,-7.5334597E-1,-3.5758668E-1,-3.6537066E-1,-4.166117E-2,-7.2124675E-2,-2.414119E-2,-1.9795181E-2,3.0348405E-2,3.324462E-2,-3.0074744E-2,-3.6300015E-2,2.1357485E-4,-8.3167374E-2,-5.200081E-2,-4.024568E-2,2.8181836E-2,-4.3504022E-2,-1.6121142E-2,-4.7209054E-2,1.902032E-3],"categories":[],"categories_nodes":[],"categories_segments":[],"categories_sizes":[],"default_left":[0,0,0,0,0,0,0,0,0,0,0,0,0,0,0,0,0,0,0,0,0,0,0,0,0,0,0,0,0,0,0],"id":25,"left_children":[1,3,5,7,9,11,13,15,17,19,21,23,25,27,29,-1,-1,-1,-1,-1,-1,-1,-1,-1,-1,-1,-1,-1,-1,-1,-1],"loss_changes":[2.5073606E3,1.6859008E3,3.709485E2,4.0944757E2,1.033079E3,1.3057983E2,1.2755249E2,1.498385E2,1.11648636E2,1.3718652E3,3.015193E2,6.3343506E1,3.1678757E1,7.676105E1,4.1086563E1,0E0,0E0,0E0,0E0,0E0,0E0,0E0,0E0,0E0,0E0,0E0,0E0,0E0,0E0,0E0,0E0],"parents":[2147483647,0,0,1,1,2,2,3,3,4,4,5,5,6,6,7,7,8,8,9,9,10,10,11,11,12,12,13,13,14,14],"right_children":[2,4,6,8,10,12,14,16,18,20,22,24,26,28,30,-1,-1,-1,-1,-1,-1,-1,-1,-1,-1,-1,-1,-1,-1,-1,-1],"split_conditions":[1E0,3.9E1,1E0,1E0,1E0,4.8E1,1E0,1E0,1E0,1E0,1E0,1E0,1E0,5E1,3.6E1,-7.2124675E-2,-2.414119E-2,-1.9795181E-2,3.0348405E-2,3.324462E-2,-3.0074744E-2,-3.6300015E-2,2.1357485E-4,-8.3167374E-2,-5.200081E-2,-4.024568E-2,2.8181836E-2,-4.3504022E-2,-1.6121142E-2,-4.7209054E-2,1.902032E-3],"split_indices":[37,0,17,17,12,0,10,22,13,15,17,10,13,0,0,0,0,0,0,0,0,0,0,0,0,0,0,0,0,0,0],"split_type":[0,0,0,0,0,0,0,0,0,0,0,0,0,0,0,0,0,0,0,0,0,0,0,0,0,0,0,0,0,0,0],"sum_hessian":[6.6800805E4,5.52408E4,1.1560007E4,9.214091E3,4.602671E4,4.587663E3,6.972344E3,3.3541023E3,5.8599883E3,3.1536719E4,1.4489991E4,3.488448E3,1.0992148E3,5.400641E3,1.5717032E3,2.4686248E3,8.854774E2,5.3768687E3,4.831197E2,2.7632273E4,3.9044458E3,2.8031956E3,1.1686796E4,2.609812E3,8.7863605E2,1.0274822E3,7.173267E1,4.0257268E3,1.3749142E3,1.933614E2,1.3783419E3],"tree_param":{"num_deleted":"0","num_feature":"45","num_nodes":"31","size_leaf_vector":"1"}},{"base_weights":[-1.3954574E-2,-6.683202E-2,1.0629159E0,1.5406301E-2,-4.6226573E-1,5.3076965E-1,1.1459644E0,-3.5949564E-1,8.9033924E-2,7.026489E-1,-4.9862587E-1,1.20170645E-1,2.0083271E-1,1.1318161E-1,1.2495895E-1,-2.9914651E-2,-9.601223E-2,8.043422E-2,5.3948998E-3,1.5594352E-3,1.03075854E-1,-3.8819443E-2,-7.25179E-2,3.7015043E-2,-3.0702313E-2],"categories":[],"categories_nodes":[],"categories_segments":[],"categories_sizes":[],"default_left":[0,0,0,0,0,0,0,0,0,0,0,0,0,0,0,0,0,0,0,0,0,0,0,0,0],"id":26,"left_children":[1,3,5,7,9,11,13,15,17,19,21,-1,23,-1,-1,-1,-1,-1,-1,-1,-1,-1,-1,-1,-1],"loss_changes":[3.771202E3,2.0529365E3,1.3638477E2,1.4426006E3,4.607036E2,9.280426E1,2.5153809E0,3.106792E2,1.096249E3,7.42368E1,2.634192E2,0E0,2.4445496E1,0E0,0E0,0E0,0E0,0E0,0E0,0E0,0E0,0E0,0E0,0E0,0E0],"parents":[2147483647,0,0,1,1,2,2,3,3,4,4,5,5,6,6,7,7,8,8,9,9,10,10,12,12],"right_children":[2,4,6,8,10,12,14,16,18,20,22,-1,24,-1,-1,-1,-1,-1,-1,-1,-1,-1,-1,-1,-1],"split_conditions":[5.178E3,1E0,7.298E3,3.9E1,-1.824E3,5.202E3,1E0,1E0,-1.762E3,-1.977E3,1E0,1.20170645E-1,6.849E3,1.1318161E-1,1.2495895E-1,-2.9914651E-2,-9.601223E-2,8.043422E-2,5.3948998E-3,1.5594352E-3,1.03075854E-1,-3.8819443E-2,-7.25179E-2,3.7015043E-2,-3.0702313E-2],"split_indices":[1,37,1,0,1,1,37,28,1,1,19,0,1,0,0,0,0,0,0,0,0,0,0,0,0],"split_type":[0,0,0,0,0,0,0,0,0,0,0,0,0,0,0,0,0,0,0,0,0,0,0,0,0],"sum_hessian":[6.62264E4,6.312759E4,3.0988088E3,5.2260035E4,1.0867555E4,4.1932315E2,2.6794856E3,8.578021E3,4.3682016E4,3.2838434E2,1.0539171E4,1.3735843E2,2.8196472E2,2.368085E3,3.1140067E2,7.796183E3,7.818388E2,2.0413444E3,4.1640668E4,1.0647516E2,2.2190916E2,7.0872583E3,3.451912E3,2.1166676E2,7.029796E1],"tree_param":{"num_deleted":"0","num_feature":"45","num_nodes":"25","size_leaf_vector":"1"}},{"base_weights":[-1.2605865E-2,6.1739378E-2,-3.8516045E-1,-2.952102E-1,1.22841336E-1,-5.9125036E-1,-2.5068572E-1,-5.8045655E-1,-1.4011289E-1,5.4905456E-2,4.03332E-1,-6.877215E-1,-2.6745105E-1,-3.1754458E-1,-2.836097E-2,-6.47712E-2,-2.2076087E-3,-9.17194E-3,-5.1764764E-2,1.27962995E-2,-1.4960668E-2,3.2939482E-2,6.0287267E-2,-7.7209026E-2,-4.4024102E-2,-1.7030759E-2,-6.169946E-2,-3.9068848E-2,-1.3207309E-2,-2.776273E-2,5.5391E-3],"categories":[],"categories_nodes":[],"categories_segments":[],"categories_sizes":[],"default_left":[0,0,0,0,0,0,0,0,0,0,0,0,0,0,0,0,0,0,0,0,0,0,0,0,0,0,0,0,0,0,0],"id":27,"left_children":[1,3,5,7,9,11,13,15,17,19,21,23,25,27,29,-1,-1,-1,-1,-1,-1,-1,-1,-1,-1,-1,-1,-1,-1,-1,-1],"loss_changes":[1.814097E3,1.1908953E3,3.018175E2,3.5299127E2,8.8835944E2,1.3418555E2,9.802536E1,1.0553613E2,9.442872E1,5.6079144E2,1.3391016E2,6.8845215E1,3.34787E1,6.8733215E1,3.1871159E1,0E0,0E0,0E0,0E0,0E0,0E0,0E0,0E0,0E0,0E0,0E0,0E0,0E0,0E0,0E0,0E0],"parents":[2147483647,0,0,1,1,2,2,3,3,4,4,5,5,6,6,7,7,8,8,9,9,10,10,11,11,12,12,13,13,14,14],"right_children":[2,4,6,8,10,12,14,16,18,20,22,24,26,28,30,-1,-1,-1,-1,-1,-1,-1,-1,-1,-1,-1,-1,-1,-1,-1,-1],"split_conditions":[1E0,3.6E1,1E0,1E0,1E0,5E1,1E0,1E0,1E0,1E0,1E0,1E0,1E0,4.6E1,1E0,-6.47712E-2,-2.2076087E-3,-9.17194E-3,-5.1764764E-2,1.27962995E-2,-1.4960668E-2,3.2939482E-2,6.0287267E-2,-7.7209026E-2,-4.4024102E-2,-1.7030759E-2,-6.169946E-2,-3.9068848E-2,-1.3207309E-2,-2.776273E-2,5.5391E-3],"split_indices":[37,0,29,29,10,0,10,10,15,23,24,10,23,0,5,0,0,0,0,0,0,0,0,0,0,0,0,0,0,0,0],"split_type":[0,0,0,0,0,0,0,0,0,0,0,0,0,0,0,0,0,0,0,0,0,0,0,0,0,0,0,0,0,0,0],"sum_hessian":[6.549454E4,5.459971E4,1.0894827E4,7.9796743E3,4.6620035E4,4.300571E3,6.5942563E3,2.8096255E3,5.170049E3,3.7531066E4,9.088969E3,3.3125286E3,9.880421E2,5.0693438E3,1.5249125E3,2.50745E3,3.021756E2,4.5837354E3,5.863134E2,2.7653004E4,9.8780625E3,6.6336187E3,2.4553499E3,2.4687764E3,8.437523E2,7.74331E2,2.137111E2,3.6347937E3,1.4345502E3,3.8292355E2,1.1419889E3],"tree_param":{"num_deleted":"0","num_feature":"45","num_nodes":"31","size_leaf_vector":"1"}},{"base_weights":[-1.1163068E-2,-5.5938274E-2,1.1223265E0,7.268388E-1,-8.9259E-2,1.1281625E0,5.499066E-1,1.9210532E-1,1.009428E0,-6.384328E-2,-1.0494411E0,1.0676165E0,1.1441296E0,1.5890042E-1,-5.7995147E-1,9.218273E-2,-9.753265E-2,-4.6219032E-2,1.1206325E-1,-2.8303713E-2,1.1774347E-3,-1.0530623E-1,-2.8190989E-2,1.1465516E-1,-7.677036E-3,1.1284771E-1,1.2327138E-1,-8.7029465E-2,1.1721096E-1],"categories":[],"categories_nodes":[],"categories_segments":[],"categories_sizes":[],"default_left":[0,0,0,0,0,0,0,0,0,0,0,0,0,0,0,0,0,0,0,0,0,0,0,0,0,0,0,0,0],"id":28,"left_children":[1,3,5,7,9,11,13,15,17,19,21,23,25,-1,27,-1,-1,-1,-1,-1,-1,-1,-1,-1,-1,-1,-1,-1,-1],"loss_changes":[3.296735E3,1.6299408E3,7.6259766E0,3.853606E2,1.46265E3,1.1396484E0,3.2460037E1,7.534768E2,2.7366272E2,9.678743E2,3.9991455E0,4.748413E1,1.2695312E0,0E0,7.9395337E0,0E0,0E0,0E0,0E0,0E0,0E0,0E0,0E0,0E0,0E0,0E0,0E0,0E0,0E0],"parents":[2147483647,0,0,1,1,2,2,3,3,4,4,5,5,6,6,7,7,8,8,9,9,10,10,11,11,12,12,14,14],"right_children":[2,4,6,8,10,12,14,16,18,20,22,24,26,-1,28,-1,-1,-1,-1,-1,-1,-1,-1,-1,-1,-1,-1,-1,-1],"split_conditions":[7.298E3,-1.824E3,1E0,-1.977E3,1E0,7.688E3,2.5036E4,-2.179E3,1E0,1E0,4.356E3,7.443E3,1E0,1.5890042E-1,9.9999E4,9.218273E-2,-9.753265E-2,-4.6219032E-2,1.1206325E-1,-2.8303713E-2,1.1774347E-3,-1.0530623E-1,-2.8190989E-2,1.1465516E-1,-7.677036E-3,1.1284771E-1,1.2327138E-1,-8.7029465E-2,1.1721096E-1],"split_indices":[1,1,36,1,36,1,1,1,17,17,1,1,19,0,1,0,0,0,0,0,0,0,0,0,0,0,0,0,0],"split_type":[0,0,0,0,0,0,0,0,0,0,0,0,0,0,0,0,0,0,0,0,0,0,0,0,0,0,0,0,0],"sum_hessian":[6.495521E4,6.2487766E4,2.4674465E3,2.550484E3,5.993728E4,2.441583E3,2.5863386E1,8.824102E2,1.6680737E3,5.839271E4,1.5445706E3,5.236851E2,1.917898E3,1.3261133E1,1.2602252E1,5.431291E2,3.3928116E2,1.1697223E2,1.5511016E3,1.4976727E4,4.3415984E4,1.5369471E3,7.6233306E0,4.8989243E2,3.3792664E1,1.6415754E3,2.7632257E2,1.1242476E1,1.3597758E0],"tree_param":{"num_deleted":"0","num_feature":"45","num_nodes":"29","size_leaf_vector":"1"}},{"base_weights":[-1.0877827E-2,1.189687E-2,-1.0016397E0,-2.6185269E-2,4.5452225E-1,-1.003021E-1,-8.616108E-3,-4.3868236E-2,8.552242E-1,3.0515078E-1,5.9689254E-1,-2.6455006E-2,2.8446047E-3,1.2798063E-1,7.9651736E-2,2.4541246E-2,7.956483E-2,8.0083944E-2,5.3753346E-2],"categories":[],"categories_nodes":[],"categories_segments":[],"categories_sizes":[],"default_left":[0,0,0,0,0,0,0,0,0,0,0,0,0,0,0,0,0,0,0],"id":29,"left_children":[1,3,5,7,9,-1,-1,11,13,15,17,-1,-1,-1,-1,-1,-1,-1,-1],"loss_changes":[1.451195E3,1.0597405E3,1.7410889E0,9.022989E2,1.0573572E2,0E0,0E0,9.0567926E2,2.7361023E1,7.1083176E1,3.0428345E1,0E0,0E0,0E0,0E0,0E0,0E0,0E0,0E0],"parents":[2147483647,0,0,1,1,2,2,3,3,4,4,7,7,8,8,9,9,10,10],"right_children":[2,4,6,8,10,-1,-1,12,14,16,18,-1,-1,-1,-1,-1,-1,-1,-1],"split_conditions":[1E0,1E0,9.4E1,1E0,1E0,-1.003021E-1,-8.616108E-3,1E0,1E0,1E0,1E0,-2.6455006E-2,2.8446047E-3,1.2798063E-1,7.9651736E-2,2.4541246E-2,7.956483E-2,8.0083944E-2,5.3753346E-2],"split_indices":[36,13,0,11,5,0,0,17,22,2,22,0,0,0,0,0,0,0,0],"split_type":[0,0,0,0,0,0,0,0,0,0,0,0,0,0,0,0,0,0,0],"sum_hessian":[6.4312227E4,6.2868062E4,1.4441636E3,5.7888457E4,4.9796055E3,1.4418923E3,2.271313E0,5.6750863E4,1.137594E3,2.4315864E3,2.548019E3,1.4006007E4,4.2744855E4,1.3566113E2,1.0019329E3,2.16893E3,2.6265643E2,5.716034E2,1.9764155E3],"tree_param":{"num_deleted":"0","num_feature":"45","num_nodes":"19","size_leaf_vector":"1"}},{"base_weights":[-1.1310877E-2,-5.2146092E-2,1.1000997E0,6.8200713E-1,-8.239612E-2,1.1061603E0,4.845671E-1,1.8778561E-1,9.5579726E-1,-5.197628E-2,-7.530639E-1,1.1176697E-1,8.922855E-1,1.4900501E-1,-5.291534E-1,8.2689516E-2,-8.7795384E-2,-3.1086678E-2,1.06743455E-1,-1.2062788E-1,-3.8882697E-3,-6.468586E-2,-1.01346865E-1,3.8259044E-2,1.0847606E-1,-8.483996E-2,1.19551204E-1],"categories":[],"categories_nodes":[],"categories_segments":[],"categories_sizes":[],"default_left":[0,0,0,0,0,0,0,0,0,0,0,0,0,0,0,0,0,0,0,0,0,0,0,0,0,0,0],"id":30,"left_children":[1,3,5,7,9,11,13,15,17,19,21,-1,23,-1,25,-1,-1,-1,-1,-1,-1,-1,-1,-1,-1,-1,-1],"loss_changes":[2.9011855E3,1.36938E3,7.915283E0,3.3000415E2,1.2081329E3,4.522705E0,2.5116337E1,5.9407904E2,2.2234192E2,8.561744E2,7.040552E1,0E0,1.1306274E1,0E0,7.9644713E0,0E0,0E0,0E0,0E0,0E0,0E0,0E0,0E0,0E0,0E0,0E0,0E0],"parents":[2147483647,0,0,1,1,2,2,3,3,4,4,5,5,6,6,7,7,8,8,9,9,10,10,12,12,14,14],"right_children":[2,4,6,8,10,12,14,16,18,20,22,-1,24,-1,26,-1,-1,-1,-1,-1,-1,-1,-1,-1,-1,-1,-1],"split_conditions":[7.298E3,-1.762E3,1E0,-1.977E3,1E0,1E0,2.5036E4,-2.179E3,1E0,-1.564E3,1E0,1.1176697E-1,8.614E3,1.4900501E-1,9.9999E4,8.2689516E-2,-8.7795384E-2,-3.1086678E-2,1.06743455E-1,-1.2062788E-1,-3.8882697E-3,-6.468586E-2,-1.01346865E-1,3.8259044E-2,1.0847606E-1,-8.483996E-2,1.19551204E-1],"split_indices":[1,1,36,1,28,30,1,1,17,1,36,0,1,0,1,0,0,0,0,0,0,0,0,0,0,0,0],"split_type":[0,0,0,0,0,0,0,0,0,0,0,0,0,0,0,0,0,0,0,0,0,0,0,0,0,0,0],"sum_hessian":[6.3922055E4,6.1657598E4,2.2644575E3,2.4391475E3,5.921845E4,2.2415898E3,2.2867733E1,8.701378E2,1.5690096E3,5.6650023E4,2.5684282E3,2.123111E3,1.1847875E2,1.1244613E1,1.1623121E1,5.440829E2,3.26055E2,1.269394E2,1.4420703E3,6.34368E2,5.6015652E4,1.8268401E3,7.415881E2,3.3295734E1,8.5183014E1,1.02363825E1,1.3867383E0],"tree_param":{"num_deleted":"0","num_feature":"45","num_nodes":"27","size_leaf_vector":"1"}},{"base_weights":[-7.252542E-3,-4.82567E-2,9.893113E-1,6.496464E-1,-7.6537326E-2,5.210684E-1,1.0821048E0,1.8229057E-1,9.225701E-1,-1.5962034E-1,1.5213959E-1,1.17704526E-1,2.22598E-1,1.0958912E-1,8.4225833E-1,7.8733325E-2,-7.4260525E-2,-2.8765235E-2,1.0337714E-1,-1.2579701E-2,-7.806772E-2,1.6513046E-2,-1.5133698E-1,3.3891078E-2,-1.4094556E-2,4.4139434E-2,1.1339004E-1],"categories":[],"categories_nodes":[],"categories_segments":[],"categories_sizes":[],"default_left":[0,0,0,0,0,0,0,0,0,0,0,0,0,0,0,0,0,0,0,0,0,0,0,0,0,0,0],"id":31,"left_children":[1,3,5,7,9,11,13,15,17,19,21,-1,23,-1,25,-1,-1,-1,-1,-1,-1,-1,-1,-1,-1,-1,-1],"loss_changes":[2.592544E3,1.20277E3,1.083772E2,3.025451E2,1.1127043E3,8.130905E1,5.993408E0,4.909105E2,2.0190051E2,9.0228394E2,3.379466E2,0E0,1.2207759E1,0E0,1.3296417E1,0E0,0E0,0E0,0E0,0E0,0E0,0E0,0E0,0E0,0E0,0E0,0E0],"parents":[2147483647,0,0,1,1,2,2,3,3,4,4,5,5,6,6,7,7,8,8,9,9,10,10,12,12,14,14],"right_children":[2,4,6,8,10,12,14,16,18,20,22,-1,24,-1,26,-1,-1,-1,-1,-1,-1,-1,-1,-1,-1,-1,-1],"split_conditions":[5.178E3,-1.762E3,7.298E3,-1.977E3,1E0,5.202E3,1E0,-2.205E3,1E0,1E0,4.849E3,1.17704526E-1,6.848E3,1.0958912E-1,1.052E4,7.8733325E-2,-7.4260525E-2,-2.8765235E-2,1.0337714E-1,-1.2579701E-2,-7.806772E-2,1.6513046E-2,-1.5133698E-1,3.3891078E-2,-1.4094556E-2,4.4139434E-2,1.1339004E-1],"split_indices":[1,1,1,1,39,1,30,1,17,28,1,0,1,0,1,0,0,0,0,0,0,0,0,0,0,0,0],"split_type":[0,0,0,0,0,0,0,0,0,0,0,0,0,0,0,0,0,0,0,0,0,0,0,0,0,0,0],"sum_hessian":[6.3442203E4,6.0935914E4,2.5062893E3,2.3722434E3,5.856367E4,4.1562595E2,2.0906636E3,8.752054E2,1.497038E3,4.2956863E4,1.5606808E4,1.2905214E2,2.8657382E2,1.9736492E3,1.17014336E2,5.29179E2,3.4602634E2,1.2584615E2,1.3711919E3,4.0739363E4,2.2175017E3,1.5486912E4,1.1989597E2,2.1716228E2,6.941153E1,5.0337955E1,6.6676384E1],"tree_param":{"num_deleted":"0","num_feature":"45","num_nodes":"27","size_leaf_vector":"1"}},{"base_weights":[-8.2561495E-3,-3.334126E-1,4.604319E-2,-5.940791E-1,-1.9617578E-1,1.2663981E-1,-1.2921043E-1,-6.388986E-1,1.4281382E-1,-2.6324716E-1,7.5863704E-2,1.8726584E-1,-1.2789647E-1,-3.947966E-1,-6.337874E-2,-6.865869E-2,-4.2634495E-3,2.2574598E-2,-4.7343936E-2,-6.422196E-2,-2.2158949E-2,1.8562838E-2,-1.6566789E-2,1.1769312E-2,3.5882227E-2,-3.629889E-2,-3.1267789E-3,-4.7824048E-2,-1.5510559E-2,-1.1364647E-2,5.469733E-3],"categories":[],"categories_nodes":[],"categories_segments":[],"categories_sizes":[],"default_left":[0,0,0,0,0,0,0,0,0,0,0,0,0,0,0,0,0,0,0,0,0,0,0,0,0,0,0,0,0,0,0],"id":32,"left_children":[1,3,5,7,9,11,13,15,17,19,21,23,25,27,29,-1,-1,-1,-1,-1,-1,-1,-1,-1,-1,-1,-1,-1,-1,-1,-1],"loss_changes":[1.111393E3,3.2211627E2,7.619143E2,1.0268237E2,1.0771628E2,5.7019995E2,2.970711E2,8.323767E1,9.250721E0,7.4613525E1,3.1001547E1,3.561361E2,1.614639E2,6.743109E1,8.083674E1,0E0,0E0,0E0,0E0,0E0,0E0,0E0,0E0,0E0,0E0,0E0,0E0,0E0,0E0,0E0,0E0],"parents":[2147483647,0,0,1,1,2,2,3,3,4,4,5,5,6,6,7,7,8,8,9,9,10,10,11,11,12,12,13,13,14,14],"right_children":[2,4,6,8,10,12,14,16,18,20,22,24,26,28,30,-1,-1,-1,-1,-1,-1,-1,-1,-1,-1,-1,-1,-1,-1,-1,-1],"split_conditions":[3.6E1,1E0,1E0,1E0,1E0,1E0,1E0,1E0,1E0,9E0,1E0,1E0,1E0,5E1,1E0,-6.865869E-2,-4.2634495E-3,2.2574598E-2,-4.7343936E-2,-6.422196E-2,-2.2158949E-2,1.8562838E-2,-1.6566789E-2,1.1769312E-2,3.5882227E-2,-3.629889E-2,-3.1267789E-3,-4.7824048E-2,-1.5510559E-2,-1.1364647E-2,5.469733E-3],"split_indices":[0,17,12,13,39,23,17,7,8,0,12,39,17,0,39,0,0,0,0,0,0,0,0,0,0,0,0,0,0,0,0],"split_type":[0,0,0,0,0,0,0,0,0,0,0,0,0,0,0,0,0,0,0,0,0,0,0,0,0,0,0,0,0,0,0],"sum_hessian":[6.2945957E4,9.006701E3,5.3939254E4,3.1052622E3,5.901439E3,3.694778E4,1.6991475E4,2.9273472E3,1.77915E2,4.7342427E3,1.1671962E3,2.9840553E4,7.107227E3,3.3741348E3,1.361734E4,2.7104207E3,2.1692662E2,1.5737056E2,2.0544434E1,4.674346E2,4.266808E3,8.026577E2,3.6453845E2,2.123189E4,8.608662E3,2.0694966E3,5.0377305E3,2.502086E3,8.7204865E2,9.551206E3,4.0661338E3],"tree_param":{"num_deleted":"0","num_feature":"45","num_nodes":"31","size_leaf_vector":"1"}},{"base_weights":[-9.748524E-3,-5.5143993E-2,8.19341E-1,1.0425048E-2,-3.9468825E-1,1.9379432E0,6.6786265E-1,5.6081183E-2,-4.3526205E-1,5.2021855E-1,-4.2267704E-1,2.3182924E0,1.1487188E0,-6.1436504E-1,9.592502E-1,7.045492E-2,3.253831E-3,-7.0516266E-2,-3.2696407E-2,4.3684365E-3,7.929229E-2,-6.352585E-2,-3.1036362E-2,1.3300817E-1,2.5209603E-1,2.8018817E-2,1.4417908E-1,5.7367064E-2,-1.4003268E-1,5.1279146E-2,1.0524692E-1],"categories":[],"categories_nodes":[],"categories_segments":[],"categories_sizes":[],"default_left":[0,0,0,0,0,0,0,0,0,0,0,0,0,0,0,0,0,0,0,0,0,0,0,0,0,0,0,0,0,0,0],"id":33,"left_children":[1,3,5,7,9,11,13,15,17,19,21,23,25,27,29,-1,-1,-1,-1,-1,-1,-1,-1,-1,-1,-1,-1,-1,-1,-1,-1],"loss_changes":[2.3516433E3,1.3188689E3,5.483025E2,1.010353E3,2.4574146E2,1.1330249E2,1.0684884E3,6.875758E2,1.3462927E2,3.700943E1,2.2194177E2,4.866028E1,3.2079254E1,4.955664E2,9.640381E1,0E0,0E0,0E0,0E0,0E0,0E0,0E0,0E0,0E0,0E0,0E0,0E0,0E0,0E0,0E0,0E0],"parents":[2147483647,0,0,1,1,2,2,3,3,4,4,5,5,6,6,7,7,8,8,9,9,10,10,11,11,12,12,13,13,14,14],"right_children":[2,4,6,8,10,12,14,16,18,20,22,24,26,28,30,-1,-1,-1,-1,-1,-1,-1,-1,-1,-1,-1,-1,-1,-1,-1,-1],"split_conditions":[4.086E3,1E0,4.411E3,1E0,-1.824E3,1E0,5.178E3,-1.876E3,1E0,-1.977E3,1E0,4.386E3,4.386E3,1E0,7.298E3,7.045492E-2,3.253831E-3,-7.0516266E-2,-3.2696407E-2,4.3684365E-3,7.929229E-2,-6.352585E-2,-3.1036362E-2,1.3300817E-1,2.5209603E-1,2.8018817E-2,1.4417908E-1,5.7367064E-2,-1.4003268E-1,5.1279146E-2,1.0524692E-1],"split_indices":[1,37,1,15,1,22,1,1,17,1,17,1,1,17,1,0,0,0,0,0,0,0,0,0,0,0,0,0,0,0,0],"split_type":[0,0,0,0,0,0,0,0,0,0,0,0,0,0,0,0,0,0,0,0,0,0,0,0,0,0,0,0,0,0,0],"sum_hessian":[6.2480164E4,5.9237637E4,3.2425283E3,4.9650625E4,9.587012E3,3.8531924E2,2.857209E3,4.503783E4,4.612796E3,2.840576E2,9.302954E3,2.587048E2,1.2661443E2,5.2886646E2,2.3283425E3,1.5768181E3,4.346101E4,1.319306E3,3.29349E3,1.03812225E2,1.8024535E2,3.2143438E3,6.0886104E3,4.5314415E1,2.133904E2,3.2438282E1,9.417615E1,2.1067964E2,3.181868E2,4.0329907E2,1.9250436E3],"tree_param":{"num_deleted":"0","num_feature":"45","num_nodes":"31","size_leaf_vector":"1"}},{"base_weights":[-5.998319E-3,-3.6668606E-2,1.0373658E0,2.2030506E-2,-3.4854403E-1,1.0468335E0,7.86319E-1,-3.861557E-2,2.825136E-1,5.175657E-1,-3.7514925E-1,1.0628308E0,9.270482E-1,2.0603642E-3,1.0803747E-1,-8.64275E-3,3.804971E-2,3.268501E-2,-8.04334E-3,8.448657E-3,7.7531844E-2,-2.8613243E-2,-6.040852E-2,1.0804009E-1,9.66512E-2,1.8355465E-2,1.0734629E-1,4.9745213E-2,-2.0057635E-1],"categories":[],"categories_nodes":[],"categories_segments":[],"categories_sizes":[],"default_left":[0,0,0,0,0,0,0,0,0,0,0,0,0,0,0,0,0,0,0,0,0,0,0,0,0,0,0,0,0],"id":34,"left_children":[1,3,5,7,9,11,13,15,17,19,21,23,25,27,-1,-1,-1,-1,-1,-1,-1,-1,-1,-1,-1,-1,-1,-1,-1],"loss_changes":[1.9829736E3,1.1020348E3,3.3826904E0,8.0035266E2,2.1991833E2,2.2767334E0,1.5755386E1,8.2354364E2,1.5399292E2,3.170356E1,1.8837085E2,1.4854736E0,2.2486374E1,2.0527933E1,0E0,0E0,0E0,0E0,0E0,0E0,0E0,0E0,0E0,0E0,0E0,0E0,0E0,0E0,0E0],"parents":[2147483647,0,0,1,1,2,2,3,3,4,4,5,5,6,6,7,7,8,8,9,9,10,10,11,11,12,12,13,13],"right_children":[2,4,6,8,10,12,14,16,18,20,22,24,26,28,-1,-1,-1,-1,-1,-1,-1,-1,-1,-1,-1,-1,-1,-1,-1],"split_conditions":[7.298E3,1E0,1E0,1E0,-1.824E3,1E0,1.052E4,1E0,1E0,-1.977E3,1E0,2.7828E4,8.614E3,9.386E3,1.0803747E-1,-8.64275E-3,3.804971E-2,3.268501E-2,-8.04334E-3,8.448657E-3,7.7531844E-2,-2.8613243E-2,-6.040852E-2,1.0804009E-1,9.66512E-2,1.8355465E-2,1.0734629E-1,4.9745213E-2,-2.0057635E-1],"split_indices":[1,37,21,10,1,16,1,13,7,1,19,1,1,1,0,0,0,0,0,0,0,0,0,0,0,0,0,0,0],"split_type":[0,0,0,0,0,0,0,0,0,0,0,0,0,0,0,0,0,0,0,0,0,0,0,0,0,0,0,0,0],"sum_hessian":[6.1965203E4,6.0196652E4,1.7685503E3,5.066227E4,9.534385E3,1.7012219E3,6.732842E1,4.1095258E4,9.56701E3,2.8359937E2,9.250785E3,1.4938464E3,2.073754E2,1.8635029E1,4.869339E1,3.6887918E4,4.2073403E3,8.525643E3,1.0413677E3,1.063077E2,1.7729167E2,6.6624746E3,2.5883105E3,1.254746E3,2.3910046E2,3.448982E1,1.7288559E2,1.5550488E1,3.0845397E0],"tree_param":{"num_deleted":"0","num_feature":"45","num_nodes":"29","size_leaf_vector":"1"}},{"base_weights":[-6.021329E-3,-3.4010377E-2,1.0183094E0,1.8858258E-2,-3.2124695E-1,9.2577106E-1,1.06331825E-1,-3.2207954E-1,6.007108E-2,-5.308639E-1,-2.1203946E-1,1.70496E-1,1.039433E0,-5.6375194E-2,-2.1683767E-2,7.8059937E-4,2.7969008E-2,-6.4383626E-2,-2.0589788E-2,-2.4247264E-2,5.6369103E-2,6.984342E-2,-1.1890455E-2,1.10190906E-1,8.3939575E-2],"categories":[],"categories_nodes":[],"categories_segments":[],"categories_sizes":[],"default_left":[0,0,0,0,0,0,0,0,0,0,0,0,0,0,0,0,0,0,0,0,0,0,0,0,0],"id":35,"left_children":[1,3,5,7,9,11,-1,13,15,17,19,21,23,-1,-1,-1,-1,-1,-1,-1,-1,-1,-1,-1,-1],"loss_changes":[1.7618195E3,9.083742E2,5.823242E0,7.098686E2,2.1274554E2,4.639984E1,0E0,1.3845264E2,5.173532E2,1.16772095E2,1.4450189E2,1.1109104E1,4.9664E0,0E0,0E0,0E0,0E0,0E0,0E0,0E0,0E0,0E0,0E0,0E0,0E0],"parents":[2147483647,0,0,1,1,2,2,3,3,4,4,5,5,7,7,8,8,9,9,10,10,11,11,12,12],"right_children":[2,4,6,8,10,12,-1,14,16,18,20,22,24,-1,-1,-1,-1,-1,-1,-1,-1,-1,-1,-1,-1],"split_conditions":[7.298E3,1E0,1E0,3.1E1,1E0,8.614E3,1.06331825E-1,1E0,1E0,4.8E1,3.103E3,7.443E3,2.7828E4,-5.6375194E-2,-2.1683767E-2,7.8059937E-4,2.7969008E-2,-6.4383626E-2,-2.0589788E-2,-2.4247264E-2,5.6369103E-2,6.984342E-2,-1.1890455E-2,1.10190906E-1,8.3939575E-2],"split_indices":[1,37,29,0,29,1,0,29,10,0,1,1,1,0,0,0,0,0,0,0,0,0,0,0,0],"split_type":[0,0,0,0,0,0,0,0,0,0,0,0,0,0,0,0,0,0,0,0,0,0,0,0,0],"sum_hessian":[6.1449375E4,5.9815918E4,1.6334572E3,5.051845E4,9.297469E3,5.41565E2,1.0918921E3,5.4473994E3,4.507105E4,3.183356E3,6.114113E3,7.116687E1,4.7039816E2,1.651232E3,3.7961675E3,3.6407742E4,8.663305E3,2.3614363E3,8.219198E2,5.883963E3,2.3015005E2,2.4698082E1,4.6468792E1,3.5501184E2,1.15386314E2],"tree_param":{"num_deleted":"0","num_feature":"45","num_nodes":"25","size_leaf_vector":"1"}},{"base_weights":[-6.995214E-3,-4.2734396E-2,7.2923577E-1,5.6684166E-1,-6.634195E-2,1.6634644E0,5.7446575E-1,1.1118516E-1,8.5760224E-1,-3.4651232E-1,-1.4702007E-2,8.9462245E-1,1.850678E0,-5.872405E-1,8.8920593E-1,6.3816406E-2,-8.197542E-2,9.170628E-2,-4.7464605E-2,-2.7594363E-2,-7.09033E-2,-1.1939297E-1,-2.2767698E-4,1.2886168E-1,3.6367733E-2,1.5395686E-1,2.2753273E-1,5.5288788E-2,-1.266544E-1,4.592912E-2,1.0029608E-1],"categories":[],"categories_nodes":[],"categories_segments":[],"categories_sizes":[],"default_left":[0,0,0,0,0,0,0,0,0,0,0,0,0,0,0,0,0,0,0,0,0,0,0,0,0,0,0,0,0,0,0],"id":36,"left_children":[1,3,5,7,9,11,13,15,17,19,21,23,25,27,29,-1,-1,-1,-1,-1,-1,-1,-1,-1,-1,-1,-1,-1,-1,-1,-1],"loss_changes":[1.6046934E3,8.370358E2,4.0728613E2,2.8722137E2,8.101323E2,5.6026367E1,8.867101E2,4.155218E2,1.05295105E2,2.2274512E2,6.9277673E2,1.6352005E1,3.894922E1,4.013227E2,9.282141E1,0E0,0E0,0E0,0E0,0E0,0E0,0E0,0E0,0E0,0E0,0E0,0E0,0E0,0E0,0E0,0E0],"parents":[2147483647,0,0,1,1,2,2,3,3,4,4,5,5,6,6,7,7,8,8,9,9,10,10,11,11,12,12,13,13,14,14],"right_children":[2,4,6,8,10,12,14,16,18,20,22,24,26,28,30,-1,-1,-1,-1,-1,-1,-1,-1,-1,-1,-1,-1,-1,-1,-1,-1],"split_conditions":[4.086E3,-1.762E3,4.411E3,-1.977E3,4E1,4.386E3,5.178E3,-2.179E3,1E0,1E0,-1.577E3,4.174E3,1E0,4.849E3,7.298E3,6.3816406E-2,-8.197542E-2,9.170628E-2,-4.7464605E-2,-2.7594363E-2,-7.09033E-2,-1.1939297E-1,-2.2767698E-4,1.2886168E-1,3.6367733E-2,1.5395686E-1,2.2753273E-1,5.5288788E-2,-1.266544E-1,4.592912E-2,1.0029608E-1],"split_indices":[1,1,1,1,0,1,1,1,19,19,1,1,12,1,1,0,0,0,0,0,0,0,0,0,0,0,0,0,0,0,0],"split_type":[0,0,0,0,0,0,0,0,0,0,0,0,0,0,0,0,0,0,0,0,0,0,0,0,0,0,0,0,0,0,0],"sum_hessian":[6.0984266E4,5.8161832E4,2.8224333E3,2.167642E3,5.599419E4,3.9974283E2,2.4226907E3,8.449255E2,1.3227167E3,8.713539E3,4.7280652E4,7.9408676E1,3.2033414E2,5.1627045E2,1.9064202E3,5.397197E2,3.0520578E2,1.2665021E3,5.621453E1,7.295207E3,1.418332E3,4.919988E2,4.6788652E4,4.476399E1,3.464469E1,1.875532E2,1.3278093E2,1.9282431E2,3.234461E2,3.9994434E2,1.5064758E3],"tree_param":{"num_deleted":"0","num_feature":"45","num_nodes":"31","size_leaf_vector":"1"}},{"base_weights":[-6.394795E-3,5.9008684E-2,-2.051492E-1,8.685063E-2,-4.0802845E-1,-4.9096727E-1,-9.2993736E-2,6.996371E-2,7.804219E-1,-4.49E-1,3.2515994E-1,-5.481584E-1,3.0030498E-2,-1.3069631E-1,7.121386E-1,1.09573435E-2,-1.6003521E-2,1.3697983E-1,7.316899E-2,-4.6857025E-2,7.819623E-2,3.7369754E-2,-4.3351896E-2,-5.7160962E-2,6.6862114E-2,2.0281611E-2,-3.5131287E-2,-8.829358E-3,-4.4419166E-2,-7.52055E-3,7.3603906E-2],"categories":[],"categories_nodes":[],"categories_segments":[],"categories_sizes":[],"default_left":[0,0,0,0,0,0,0,0,0,0,0,0,0,0,0,0,0,0,0,0,0,0,0,0,0,0,0,0,0,0,0],"id":37,"left_children":[1,3,5,7,9,11,13,15,17,19,21,23,25,27,29,-1,-1,-1,-1,-1,-1,-1,-1,-1,-1,-1,-1,-1,-1,-1,-1],"loss_changes":[7.885378E2,5.935205E2,4.8140533E2,5.0444528E2,7.728726E1,1.2612622E2,3.2755844E2,3.8311646E2,2.8401062E1,5.896524E1,5.1880484E0,1.09208496E2,2.7718338E1,1.369582E2,9.139099E0,0E0,0E0,0E0,0E0,0E0,0E0,0E0,0E0,0E0,0E0,0E0,0E0,0E0,0E0,0E0,0E0],"parents":[2147483647,0,0,1,1,2,2,3,3,4,4,5,5,6,6,7,7,8,8,9,9,10,10,11,11,12,12,13,13,14,14],"right_children":[2,4,6,8,10,12,14,16,18,20,22,24,26,28,30,-1,-1,-1,-1,-1,-1,-1,-1,-1,-1,-1,-1,-1,-1,-1,-1],"split_conditions":[1E0,1E0,1E0,1E0,1E0,1E0,1E0,1E0,1E0,1E0,1E0,1E0,1E0,1E0,2.8E1,1.09573435E-2,-1.6003521E-2,1.3697983E-1,7.316899E-2,-4.6857025E-2,7.819623E-2,3.7369754E-2,-4.3351896E-2,-5.7160962E-2,6.6862114E-2,2.0281611E-2,-3.5131287E-2,-8.829358E-3,-4.4419166E-2,-7.52055E-3,7.3603906E-2],"split_indices":[23,25,17,11,13,10,2,37,22,11,37,13,37,7,0,0,0,0,0,0,0,0,0,0,0,0,0,0,0,0,0],"split_type":[0,0,0,0,0,0,0,0,0,0,0,0,0,0,0,0,0,0,0,0,0,0,0,0,0,0,0,0,0,0,0],"sum_hessian":[6.0658414E4,4.5640383E4,1.5018032E4,4.3073418E4,2.566964E3,4.2313755E3,1.0786656E4,4.205068E4,1.02274E3,2.4314775E3,1.3548656E2,3.8127852E3,4.1859048E2,1.0304937E4,4.817198E2,3.5873223E4,6.1774565E3,7.603583E1,9.4670416E2,2.394036E3,3.7441784E1,1.27816734E2,7.6698294E0,3.7412104E3,7.157482E1,2.8838995E2,1.3020053E2,9.078306E3,1.2266312E3,1.4128906E1,4.6759088E2],"tree_param":{"num_deleted":"0","num_feature":"45","num_nodes":"31","size_leaf_vector":"1"}},{"base_weights":[-5.314467E-3,-2.8482694E-2,9.8108524E-1,-1.1021835E-2,-1.001273E0,9.934179E-1,1.869287E-1,3.6759324E-2,-2.7333942E-1,-1.0084248E0,-4.3254408E-1,1.0071021E0,6.557472E-1,1.16435446E-1,-7.0704746E-1,1.0764329E-2,-1.145349E-2,-1.9516772E-2,-4.9922552E-2,-4.9992796E-2,-1.0149675E-1,1.1656939E-1,-6.3783735E-2,8.921434E-2,1.0395702E-1,-2.5476366E-2,1.0593187E-1,-1.0088464E-1,9.332653E-2],"categories":[],"categories_nodes":[],"categories_segments":[],"categories_sizes":[],"default_left":[0,0,0,0,0,0,0,0,0,0,0,0,0,0,0,0,0,0,0,0,0,0,0,0,0,0,0,0,0],"id":38,"left_children":[1,3,5,7,9,11,13,15,17,19,21,23,25,-1,27,-1,-1,-1,-1,-1,-1,-1,-1,-1,-1,-1,-1,-1,-1],"loss_changes":[1.3801401E3,1.0022435E3,1.3388062E1,7.2654865E2,3.7955322E0,5.644409E0,2.041796E1,5.2588446E2,1.5761865E2,2.9084473E0,5.5574665E0,3.960083E0,2.0850653E1,0E0,7.047687E0,0E0,0E0,0E0,0E0,0E0,0E0,0E0,0E0,0E0,0E0,0E0,0E0,0E0,0E0],"parents":[2147483647,0,0,1,1,2,2,3,3,4,4,5,5,6,6,7,7,8,8,9,9,10,10,11,11,12,12,14,14],"right_children":[2,4,6,8,10,12,14,16,18,20,22,24,26,-1,28,-1,-1,-1,-1,-1,-1,-1,-1,-1,-1,-1,-1,-1,-1],"split_conditions":[7.298E3,1E0,1E0,1E0,3.103E3,1E0,2.5036E4,1E0,1E0,-1.74E3,3.105E3,7.688E3,1.052E4,1.16435446E-1,9.9999E4,1.0764329E-2,-1.145349E-2,-1.9516772E-2,-4.9922552E-2,-4.9992796E-2,-1.0149675E-1,1.1656939E-1,-6.3783735E-2,8.921434E-2,1.0395702E-1,-2.5476366E-2,1.0593187E-1,-1.0088464E-1,9.332653E-2],"split_indices":[1,36,36,37,1,21,1,12,19,1,1,1,1,0,1,0,0,0,0,0,0,0,0,0,0,0,0,0,0],"split_type":[0,0,0,0,0,0,0,0,0,0,0,0,0,0,0,0,0,0,0,0,0,0,0,0,0,0,0,0,0],"sum_hessian":[6.0389504E4,5.9004594E4,1.3849092E3,5.7965176E4,1.0394202E3,1.3634843E3,2.1424822E1,4.9034414E4,8.930761E3,1.0257484E3,1.3671846E1,1.3084755E3,5.500879E1,1.0090244E1,1.1334578E1,3.339062E4,1.5643794E4,6.6360923E3,2.2946685E3,1.4013737E1,1.0117346E3,1.0237347E0,1.2648111E1,2.944398E2,1.0140357E3,1.7007143E1,3.8001644E1,9.898359E0,1.4362185E0],"tree_param":{"num_deleted":"0","num_feature":"45","num_nodes":"29","size_leaf_vector":"1"}},{"base_weights":[-7.756323E-4,1.5064881E-2,-9.609479E-1,-6.54704E-2,1.4233853E-1,-9.6288465E-2,-1.475085E-2,-1.7600559E-2,-3.2846618E-1,1.2788488E-1,7.09366E-1,-4.277227E-3,4.634372E-2,-5.601417E-2,-2.194023E-2,9.83188E-3,3.971231E-2,6.4578325E-2,1.3750261E-1],"categories":[],"categories_nodes":[],"categories_segments":[],"categories_sizes":[],"default_left":[0,0,0,0,0,0,0,0,0,0,0,0,0,0,0,0,0,0,0],"id":39,"left_children":[1,3,5,7,9,-1,-1,11,13,15,17,-1,-1,-1,-1,-1,-1,-1,-1],"loss_changes":[9.1271295E2,6.0511957E2,1.392273E0,4.5519507E2,1.874172E2,0E0,0E0,3.7042346E2,1.4055908E2,1.7756808E2,2.3172485E1,0E0,0E0,0E0,0E0,0E0,0E0,0E0,0E0],"parents":[2147483647,0,0,1,1,2,2,3,3,4,4,7,7,8,8,9,9,10,10],"right_children":[2,4,6,8,10,-1,-1,12,14,16,18,-1,-1,-1,-1,-1,-1,-1,-1],"split_conditions":[1E0,4.4E1,1E0,1E0,1E0,-9.6288465E-2,-1.475085E-2,1E0,1E0,1E0,1E0,-4.277227E-3,4.634372E-2,-5.601417E-2,-2.194023E-2,9.83188E-3,3.971231E-2,6.4578325E-2,1.3750261E-1],"split_indices":[36,0,13,37,11,0,0,2,17,13,24,0,0,0,0,0,0,0,0],"split_type":[0,0,0,0,0,0,0,0,0,0,0,0,0,0,0,0,0,0,0],"sum_hessian":[6.0006965E4,5.903403E4,9.7293396E2,3.6155996E4,2.2878037E4,9.704398E2,2.4941983E0,3.0589277E4,5.566718E3,2.231056E4,5.6747565E2,2.9069064E4,1.5202129E3,1.7804714E3,3.786246E3,2.0104207E4,2.2063545E3,5.197957E2,4.7679943E1],"tree_param":{"num_deleted":"0","num_feature":"45","num_nodes":"19","size_leaf_vector":"1"}},{"base_weights":[-4.6090423E-3,9.654347E-3,-9.409647E-1,6.274452E-2,-1.564023E-1,-9.435047E-2,-2.539372E-3,8.506241E-2,-3.4052145E-1,-3.9398682E-1,-7.570998E-2,1.4090771E-2,-6.8850056E-3,-2.8674114E-2,-6.687927E-2,-2.9819105E-2,-7.084196E-2,-1.0830292E-2,5.941247E-2],"categories":[],"categories_nodes":[],"categories_segments":[],"categories_sizes":[],"default_left":[0,0,0,0,0,0,0,0,0,0,0,0,0,0,0,0,0,0,0],"id":40,"left_children":[1,3,5,7,9,-1,-1,11,13,15,17,-1,-1,-1,-1,-1,-1,-1,-1],"loss_changes":[8.00887E2,5.207424E2,2.0684204E0,4.0285468E2,2.743059E2,0E0,0E0,3.6455157E2,4.1249542E1,1.09059814E2,2.3329543E2,0E0,0E0,0E0,0E0,0E0,0E0,0E0,0E0],"parents":[2147483647,0,0,1,1,2,2,3,3,4,4,7,7,8,8,9,9,10,10],"right_children":[2,4,6,8,10,-1,-1,12,14,16,18,-1,-1,-1,-1,-1,-1,-1,-1],"split_conditions":[1E0,1E0,9.4E1,1E0,1E0,-9.435047E-2,-2.539372E-3,1E0,1E0,1E0,1E0,1.4090771E-2,-6.8850056E-3,-2.8674114E-2,-6.687927E-2,-2.9819105E-2,-7.084196E-2,-1.0830292E-2,5.941247E-2],"split_indices":[36,23,0,9,17,0,0,12,37,37,2,0,0,0,0,0,0,0,0],"split_type":[0,0,0,0,0,0,0,0,0,0,0,0,0,0,0,0,0,0,0],"sum_hessian":[5.9964676E4,5.906592E4,8.9875415E2,4.4757176E4,1.4308748E4,8.962373E2,2.516853E0,4.241083E4,2.3463474E3,3.6266943E3,1.0682054E4,3.1119555E4,1.1291273E4,2.0176686E3,3.2867886E2,2.781289E3,8.454053E2,1.0187201E4,4.948523E2],"tree_param":{"num_deleted":"0","num_feature":"45","num_nodes":"19","size_leaf_vector":"1"}},{"base_weights":[-7.6787034E-3,-3.8300492E-2,6.747179E-1,-2.618584E-3,-4.168089E-1,1.5101562E0,5.2210337E-1,6.070821E-1,-2.26194E-2,-3.705101E-1,-8.21965E-1,7.017063E-1,1.70338E0,-5.111023E-1,8.333221E-1,1.6209658E-2,9.547866E-2,-1.0738368E-3,-9.514999E-2,-4.309041E-2,-1.7818796E-2,-8.699508E-2,-4.1361813E-2,1.0946208E-1,1.4643656E-2,1.8741928E-1,1.2203033E-1,5.495544E-2,-1.2038946E-1,4.0823955E-2,9.636717E-2],"categories":[],"categories_nodes":[],"categories_segments":[],"categories_sizes":[],"default_left":[0,0,0,0,0,0,0,0,0,0,0,0,0,0,0,0,0,0,0,0,0,0,0,0,0,0,0,0,0,0,0],"id":41,"left_children":[1,3,5,7,9,11,13,15,17,19,21,23,25,27,29,-1,-1,-1,-1,-1,-1,-1,-1,-1,-1,-1,-1,-1,-1,-1,-1],"loss_changes":[1.244326E3,7.697046E2,3.2527856E2,6.351245E2,9.179144E1,6.042804E1,6.9623535E2,2.558003E2,5.565206E2,5.112195E1,9.490204E0,1.6812996E1,2.3927246E1,3.6919946E2,9.177246E1,0E0,0E0,0E0,0E0,0E0,0E0,0E0,0E0,0E0,0E0,0E0,0E0,0E0,0E0,0E0,0E0],"parents":[2147483647,0,0,1,1,2,2,3,3,4,4,5,5,6,6,7,7,8,8,9,9,10,10,11,11,12,12,13,13,14,14],"right_children":[2,4,6,8,10,12,14,16,18,20,22,24,26,28,30,-1,-1,-1,-1,-1,-1,-1,-1,-1,-1,-1,-1,-1,-1,-1,-1],"split_conditions":[4.086E3,1E0,4.411E3,-1.876E3,1E0,4.386E3,5.178E3,-1.977E3,3.137E3,4.6E1,1E0,1E0,1E0,4.849E3,7.298E3,1.6209658E-2,9.547866E-2,-1.0738368E-3,-9.514999E-2,-4.309041E-2,-1.7818796E-2,-8.699508E-2,-4.1361813E-2,1.0946208E-1,1.4643656E-2,1.8741928E-1,1.2203033E-1,5.495544E-2,-1.2038946E-1,4.0823955E-2,9.636717E-2],"split_indices":[1,15,1,1,19,1,1,1,1,0,39,22,22,1,1,0,0,0,0,0,0,0,0,0,0,0,0,0,0,0,0],"split_type":[0,0,0,0,0,0,0,0,0,0,0,0,0,0,0,0,0,0,0,0,0,0,0,0,0,0,0,0,0,0,0],"sum_hessian":[5.9545707E4,5.6989316E4,2.5563884E3,5.2080688E4,4.9086284E3,3.9348557E2,2.1629028E3,1.6532742E3,5.0427414E4,4.406944E3,5.0168457E2,7.679719E1,3.1668835E2,5.0053842E2,1.6623645E3,7.2583307E2,9.274411E2,4.979156E4,6.358575E2,3.3528306E3,1.0541134E3,4.479182E2,5.3766342E1,4.440466E1,3.239253E1,2.3183377E2,8.48546E1,1.9784572E2,3.026927E2,3.9109564E2,1.2712688E3],"tree_param":{"num_deleted":"0","num_feature":"45","num_nodes":"31","size_leaf_vector":"1"}},{"base_weights":[-3.9266665E-3,8.788328E-3,-9.205249E-2,3.6528096E-2,-3.0481398E-1,1.1469389E-1,-1.1537299E-1,-5.278466E-1,-2.3822771E-1,2.4218326E-2,-1.2465935E-3,-3.3662293E-2,-6.3970224E-3,-5.7596624E-2,-7.964398E-3,-2.0904457E-2,-4.7050115E-2],"categories":[],"categories_nodes":[],"categories_segments":[],"categories_sizes":[],"default_left":[0,0,0,0,0,0,0,0,0,0,0,0,0,0,0,0,0],"id":42,"left_children":[1,3,-1,5,7,9,11,13,15,-1,-1,-1,-1,-1,-1,-1,-1],"loss_changes":[6.905331E2,5.0839365E2,0E0,6.375171E2,7.0405945E1,5.747041E2,2.074456E2,2.3486084E1,2.4705582E1,0E0,0E0,0E0,0E0,0E0,0E0,0E0,0E0],"parents":[2147483647,0,0,1,1,3,3,4,4,5,5,6,6,7,7,8,8],"right_children":[2,4,-1,6,8,10,12,14,16,-1,-1,-1,-1,-1,-1,-1,-1],"split_conditions":[1E0,1E0,-9.205249E-2,1E0,1E0,1E0,1E0,1E0,1E0,2.4218326E-2,-1.2465935E-3,-3.3662293E-2,-6.3970224E-3,-5.7596624E-2,-7.964398E-3,-2.0904457E-2,-4.7050115E-2],"split_indices":[36,15,0,12,17,14,17,7,37,0,0,0,0,0,0,0,0],"split_type":[0,0,0,0,0,0,0,0,0,0,0,0,0,0,0,0,0],"sum_hessian":[5.9248438E4,5.843877E4,8.096686E2,5.369045E4,4.7483184E3,3.544915E4,1.82413E4,1.0900929E3,3.6582256E3,1.7701184E4,1.7747965E4,3.437957E3,1.4803345E4,9.841484E2,1.05944595E2,3.2515913E3,4.066343E2],"tree_param":{"num_deleted":"0","num_feature":"45","num_nodes":"17","size_leaf_vector":"1"}},{"base_weights":[-3.667507E-3,-2.2703538E-2,9.415927E-1,-1.1061981E-2,-9.389862E-1,7.7614313E-1,1.0305401E-1,4.9263924E-1,-2.943872E-2,-2.0622009E-1,-9.513092E-1,-3.2428494E-1,9.58554E-1,8.872262E-3,7.7523045E-2,-1.1316242E-1,-1.8875765E-3,-5.9517246E-2,2.6270842E-2,-9.6135326E-2,-2.4524428E-2,3.52696E-2,-6.083254E-2,9.979779E-2,2.6813716E-2],"categories":[],"categories_nodes":[],"categories_segments":[],"categories_sizes":[],"default_left":[0,0,0,0,0,0,0,0,0,0,0,0,0,0,0,0,0,0,0,0,0,0,0,0,0],"id":43,"left_children":[1,3,5,7,9,11,-1,13,15,17,19,21,23,-1,-1,-1,-1,-1,-1,-1,-1,-1,-1,-1,-1],"loss_changes":[1.0625123E3,6.1741754E2,1.6354492E1,5.2908295E2,6.361023E0,8.2933975E1,0E0,2.2958093E2,6.420089E2,2.5797524E0,4.8269653E0,1.1612692E1,9.349884E0,0E0,0E0,0E0,0E0,0E0,0E0,0E0,0E0,0E0,0E0,0E0,0E0],"parents":[2147483647,0,0,1,1,2,2,3,3,4,4,5,5,7,7,8,8,9,9,10,10,11,11,12,12],"right_children":[2,4,6,8,10,12,-1,14,16,18,20,22,24,-1,-1,-1,-1,-1,-1,-1,-1,-1,-1,-1,-1],"split_conditions":[7.298E3,1E0,1E0,-1.762E3,-1.74E3,8.614E3,1.0305401E-1,-1.977E3,-1.577E3,-1.977E3,3.103E3,7.443E3,1E0,8.872262E-3,7.7523045E-2,-1.1316242E-1,-1.8875765E-3,-5.9517246E-2,2.6270842E-2,-9.6135326E-2,-2.4524428E-2,3.52696E-2,-6.083254E-2,9.979779E-2,2.6813716E-2],"split_indices":[1,36,17,1,1,1,0,1,1,1,1,1,36,0,0,0,0,0,0,0,0,0,0,0,0],"split_type":[0,0,0,0,0,0,0,0,0,0,0,0,0,0,0,0,0,0,0,0,0,0,0,0,0],"sum_hessian":[5.9045953E4,5.7881293E4,1.1646609E3,5.7156125E4,7.251681E2,4.1061307E2,7.540478E2,2.0109426E3,5.514518E4,1.2286826E1,7.128813E2,5.8275772E1,3.5233728E2,8.2831696E2,1.1826257E3,5.224675E2,5.4622715E4,6.5689764E0,5.7178497E0,7.0252594E2,1.0355318E1,1.7152609E1,4.1123165E1,3.3288364E2,1.945364E1],"tree_param":{"num_deleted":"0","num_feature":"45","num_nodes":"25","size_leaf_vector":"1"}},{"base_weights":[-3.2577442E-3,-2.0735849E-2,9.337222E-1,-1.0022659E-2,-9.2663985E-1,9.4696987E-1,2.925167E-1,3.0793356E-2,-2.4145344E-1,-1.8412472E-1,-9.403828E-1,8.8224024E-1,1.0200385E-1,1.256553E-1,-5.315878E-1,5.709892E-3,-2.6203146E-2,-2.6609326E-2,4.301211E-2,-7.311135E-2,4.4588E-2,-9.474903E-2,2.7909144E-3,1.00233175E-1,8.087233E-2,-7.9835296E-2,9.612501E-2],"categories":[],"categories_nodes":[],"categories_segments":[],"categories_sizes":[],"default_left":[0,0,0,0,0,0,0,0,0,0,0,0,0,0,0,0,0,0,0,0,0,0,0,0,0,0,0],"id":44,"left_children":[1,3,5,7,9,11,13,15,17,19,21,23,-1,-1,25,-1,-1,-1,-1,-1,-1,-1,-1,-1,-1,-1,-1],"loss_changes":[9.612887E2,5.592359E2,8.853699E0,5.3797345E2,6.69928E0,4.0789795E0,1.9103838E1,3.7294293E2,1.414035E2,4.9720025E0,4.5755615E0,4.1829224E0,0E0,0E0,6.0294657E0,0E0,0E0,0E0,0E0,0E0,0E0,0E0,0E0,0E0,0E0,0E0,0E0],"parents":[2147483647,0,0,1,1,2,2,3,3,4,4,5,5,6,6,7,7,8,8,9,9,10,10,11,11,14,14],"right_children":[2,4,6,8,10,12,14,16,18,20,22,24,-1,-1,26,-1,-1,-1,-1,-1,-1,-1,-1,-1,-1,-1,-1],"split_conditions":[7.298E3,1E0,1E0,1E0,-1.74E3,1.0605E4,2.5036E4,1E0,3.103E3,-1.977E3,4.356E3,7.443E3,1.0200385E-1,1.256553E-1,9.9999E4,5.709892E-3,-2.6203146E-2,-2.6609326E-2,4.301211E-2,-7.311135E-2,4.4588E-2,-9.474903E-2,2.7909144E-3,1.00233175E-1,8.087233E-2,-7.9835296E-2,9.612501E-2],"split_indices":[1,36,36,37,1,1,1,15,1,1,1,1,0,0,1,0,0,0,0,0,0,0,0,0,0,0,0],"split_type":[0,0,0,0,0,0,0,0,0,0,0,0,0,0,0,0,0,0,0,0,0,0,0,0,0,0,0],"sum_hessian":[5.869661E4,5.7622715E4,1.0738966E3,5.6950234E4,6.7248047E2,1.0516913E3,2.2205343E1,4.841283E4,8.537404E3,1.2482123E1,6.5999835E2,5.6460046E2,4.870908E2,9.991984E0,1.2213359E1,4.4422953E4,3.9898777E3,8.235838E3,3.01566E2,6.595353E0,5.8867702E0,6.552104E2,4.7879653E0,2.0959264E2,3.5500784E2,1.0756432E1,1.4569272E0],"tree_param":{"num_deleted":"0","num_feature":"45","num_nodes":"27","size_leaf_vector":"1"}},{"base_weights":[-2.5451952E-3,7.0407516E-3,-8.6504614E-1,6.0565848E-2,-1.1103401E-1,-8.80975E-1,-4.334188E-2,1.0627687E-2,1.8962242E-1,-3.202103E-1,-6.381334E-2,-9.208496E-2,-7.521797E-2,2.2626806E-3,-3.8732514E-2,2.1618126E-2,-1.7662851E-2,-2.8471846E-2,-6.140029E-2,-7.876534E-3,4.010539E-2],"categories":[],"categories_nodes":[],"categories_segments":[],"categories_sizes":[],"default_left":[0,0,0,0,0,0,0,0,0,0,0,0,0,0,0,0,0,0,0,0,0],"id":45,"left_children":[1,3,5,7,9,11,-1,13,15,17,19,-1,-1,-1,-1,-1,-1,-1,-1,-1,-1],"loss_changes":[4.8288037E2,3.6506427E2,4.0319824E0,2.561552E2,1.7794693E2,2.4820557E0,0E0,1.3685435E2,1.07901E2,3.442325E1,1.0221028E2,0E0,0E0,0E0,0E0,0E0,0E0,0E0,0E0,0E0,0E0],"parents":[2147483647,0,0,1,1,2,2,3,3,4,4,5,5,7,7,8,8,9,9,10,10],"right_children":[2,4,6,8,10,12,-1,14,16,18,20,-1,-1,-1,-1,-1,-1,-1,-1,-1,-1],"split_conditions":[1E0,1E0,1E0,1E0,1E0,1E0,-4.334188E-2,1E0,1E0,1E0,1E0,-9.208496E-2,-7.521797E-2,2.2626806E-3,-3.8732514E-2,2.1618126E-2,-1.7662851E-2,-2.8471846E-2,-6.140029E-2,-7.876534E-3,4.010539E-2],"split_indices":[36,12,10,39,17,17,0,28,30,28,2,0,0,0,0,0,0,0,0,0,0],"split_type":[0,0,0,0,0,0,0,0,0,0,0,0,0,0,0,0,0,0,0,0,0],"sum_hessian":[5.8402582E4,5.77616E4,6.40978E2,3.974505E4,1.8016553E4,6.171612E2,2.3816866E1,2.8657266E4,1.1087785E4,3.3170469E3,1.4699505E4,4.665647E2,1.5059647E2,2.7819396E4,8.378703E2,1.0338494E4,7.492901E2,2.9612769E3,3.557701E2,1.4242248E4,4.5725723E2],"tree_param":{"num_deleted":"0","num_feature":"45","num_nodes":"21","size_leaf_vector":"1"}},{"base_weights":[-5.1501812E-3,-2.0953653E-2,9.104752E-1,-6.539574E-2,1.9495127E-1,7.202675E-1,1.0163368E-1,4.8195785E-1,-8.195501E-2,2.2636008E-1,-9.0480775E-2,-2.8203043E-1,9.15685E-1,6.0462463E-3,8.770617E-2,-6.5061436E-3,-5.9697624E-2,2.657544E-2,-3.3932372E-3,-1.3161666E-2,1.1995902E-1,3.501027E-2,-5.734821E-2,9.53223E-2,4.060866E-2],"categories":[],"categories_nodes":[],"categories_segments":[],"categories_sizes":[],"default_left":[0,0,0,0,0,0,0,0,0,0,0,0,0,0,0,0,0,0,0,0,0,0,0,0,0],"id":46,"left_children":[1,3,5,7,9,11,-1,13,15,17,19,21,23,-1,-1,-1,-1,-1,-1,-1,-1,-1,-1,-1,-1],"loss_changes":[8.4451984E2,5.5051904E2,1.9207275E1,4.3129144E2,8.782419E1,7.028085E1,0E0,2.3264905E2,4.0178223E2,9.04841E1,5.1719025E1,1.1088024E1,5.340393E0,0E0,0E0,0E0,0E0,0E0,0E0,0E0,0E0,0E0,0E0,0E0,0E0],"parents":[2147483647,0,0,1,1,2,2,3,3,4,4,5,5,7,7,8,8,9,9,10,10,11,11,12,12],"right_children":[2,4,6,8,10,12,-1,14,16,18,20,22,24,-1,-1,-1,-1,-1,-1,-1,-1,-1,-1,-1,-1],"split_conditions":[7.298E3,1E0,1E0,-1.876E3,1E0,8.614E3,1.0163368E-1,-1.977E3,1E0,1E0,4.086E3,7.443E3,1E0,6.0462463E-3,8.770617E-2,-6.5061436E-3,-5.9697624E-2,2.657544E-2,-3.3932372E-3,-1.3161666E-2,1.1995902E-1,3.501027E-2,-5.734821E-2,9.53223E-2,4.060866E-2],"split_indices":[1,40,17,1,15,1,0,1,28,7,1,1,15,0,0,0,0,0,0,0,0,0,0,0,0],"split_type":[0,0,0,0,0,0,0,0,0,0,0,0,0,0,0,0,0,0,0,0,0,0,0,0,0],"sum_hessian":[5.836094E4,5.7371695E4,9.892445E2,4.757874E4,9.792959E3,3.5650146E2,6.3274304E2,1.3963212E3,4.6182414E4,8.822357E3,9.7060144E2,5.809394E1,2.984075E2,6.761547E2,7.2016644E2,4.4716758E4,1.4656595E3,7.662626E3,1.1597316E3,9.4147894E2,2.9122513E1,1.8268951E1,3.982499E1,2.7712347E2,2.1284023E1],"tree_param":{"num_deleted":"0","num_feature":"45","num_nodes":"25","size_leaf_vector":"1"}},{"base_weights":[-1.8713678E-3,-7.255317E-2,1.0989183E-1,-1.18469E-1,1.4332122E-1,9.679915E-2,6.229765E-1,-2.914074E-1,-6.2070645E-2,1.1807451E-1,5.5500954E-1,1.2803793E-1,-8.609074E-2,5.6606716E-1,1.186334E0,-5.061834E-2,-1.4979191E-2,-8.020502E-3,3.4521844E-2,1.9117707E-2,-1.6650431E-3,5.8356315E-2,-3.7419487E-4,-9.972266E-4,1.7344879E-2,-1.4349897E-2,2.9599646E-2,6.026871E-2,9.367868E-3,1.9404988E-1,9.3673855E-2],"categories":[],"categories_nodes":[],"categories_segments":[],"categories_sizes":[],"default_left":[0,0,0,0,0,0,0,0,0,0,0,0,0,0,0,0,0,0,0,0,0,0,0,0,0,0,0,0,0,0,0],"id":47,"left_children":[1,3,5,7,9,11,13,15,17,19,21,23,25,27,29,-1,-1,-1,-1,-1,-1,-1,-1,-1,-1,-1,-1,-1,-1,-1,-1],"loss_changes":[4.5858838E2,3.5250696E2,1.5102078E2,2.8600232E2,6.476761E1,1.2531256E2,1.7263962E1,2.1926117E2,1.633656E2,5.789937E1,5.7481766E0,1.1740167E2,7.023805E1,8.766235E0,7.6721954E0,0E0,0E0,0E0,0E0,0E0,0E0,0E0,0E0,0E0,0E0,0E0,0E0,0E0,0E0,0E0,0E0],"parents":[2147483647,0,0,1,1,2,2,3,3,4,4,5,5,6,6,7,7,8,8,9,9,10,10,11,11,12,12,13,13,14,14],"right_children":[2,4,6,8,10,12,14,16,18,20,22,24,26,28,30,-1,-1,-1,-1,-1,-1,-1,-1,-1,-1,-1,-1,-1,-1,-1,-1],"split_conditions":[4.4E1,1E0,1E0,1E0,1E0,1E0,1E0,1E0,1E0,1E0,1E0,1E0,1E0,1E0,1E0,-5.061834E-2,-1.4979191E-2,-8.020502E-3,3.4521844E-2,1.9117707E-2,-1.6650431E-3,5.8356315E-2,-3.7419487E-4,-9.972266E-4,1.7344879E-2,-1.4349897E-2,2.9599646E-2,6.026871E-2,9.367868E-3,1.9404988E-1,9.3673855E-2],"split_indices":[0,40,11,17,2,7,24,26,2,12,21,17,26,3,17,0,0,0,0,0,0,0,0,0,0,0,0,0,0,0,0],"split_type":[0,0,0,0,0,0,0,0,0,0,0,0,0,0,0,0,0,0,0,0,0,0,0,0,0,0,0,0,0,0,0],"sum_hessian":[5.8049914E4,3.556076E4,2.248915E4,2.9324072E4,6.23669E3,2.193072E4,5.584304E2,7.210333E3,2.2113738E4,5.877538E3,3.5915204E2,1.873155E4,3.1991702E3,5.0901538E2,4.9415028E1,2.8640703E3,4.3462627E3,2.1171873E4,9.418654E2,3.809864E3,2.067674E3,3.4164853E2,1.750351E1,4.637697E3,1.4093854E4,2.7818276E3,4.173425E2,4.7213892E2,3.687649E1,1.0602995E1,3.881203E1],"tree_param":{"num_deleted":"0","num_feature":"45","num_nodes":"31","size_leaf_vector":"1"}},{"base_weights":[-1.0188166E-3,2.414625E-2,-2.8889048E-1,1.31043065E-2,5.818425E-1,-5.213567E-1,-2.106022E-1,-1.1372963E-2,2.6512855E-1,5.435945E-1,1.0395905E0,-4.6891198E-1,-9.590069E-2,-2.8511193E-1,-1.2788841E-1,-6.728159E-3,1.5727796E-2,1.2127362E-2,4.046196E-2,5.9924316E-2,3.7464786E-2,1.4647548E-2,1.14809215E-1,-5.6594897E-2,-2.7599243E-2,-2.5614634E-2,-5.384165E-2,1.0364774E-2,-2.0464106E-2],"categories":[],"categories_nodes":[],"categories_segments":[],"categories_sizes":[],"default_left":[0,0,0,0,0,0,0,0,0,0,0,0,0,0,0,0,0,0,0,0,0,0,0,0,0,0,0,0,0],"id":48,"left_children":[1,3,5,7,9,11,13,15,17,19,21,23,-1,25,27,-1,-1,-1,-1,-1,-1,-1,-1,-1,-1,-1,-1,-1,-1],"loss_changes":[4.1904126E2,3.2756445E2,8.4519165E1,3.2178577E2,1.75159E1,2.6423523E1,2.1412445E1,4.4832074E2,9.261215E1,8.755859E0,7.442856E0,1.9453125E1,0E0,1.32899475E1,2.9363846E1,0E0,0E0,0E0,0E0,0E0,0E0,0E0,0E0,0E0,0E0,0E0,0E0,0E0,0E0],"parents":[2147483647,0,0,1,1,2,2,3,3,4,4,5,5,6,6,7,7,8,8,9,9,10,10,11,11,13,13,14,14],"right_children":[2,4,6,8,10,12,14,16,18,20,22,24,-1,26,28,-1,-1,-1,-1,-1,-1,-1,-1,-1,-1,-1,-1,-1,-1],"split_conditions":[1E0,1E0,1E0,1E0,1E0,1E0,1E0,1E0,1E0,1E0,1E0,1E0,-9.590069E-2,1E0,1E0,-6.728159E-3,1.5727796E-2,1.2127362E-2,4.046196E-2,5.9924316E-2,3.7464786E-2,1.4647548E-2,1.14809215E-1,-5.6594897E-2,-2.7599243E-2,-2.5614634E-2,-5.384165E-2,1.0364774E-2,-2.0464106E-2],"split_indices":[15,11,29,13,24,36,24,10,5,38,33,24,0,37,5,0,0,0,0,0,0,0,0,0,0,0,0,0,0],"split_type":[0,0,0,0,0,0,0,0,0,0,0,0,0,0,0,0,0,0,0,0,0,0,0,0,0,0,0,0,0],"sum_hessian":[5.7842223E4,5.319312E4,4.6491016E3,5.216139E4,1.0317307E3,1.1698212E3,3.4792805E3,4.754468E4,4.616712E3,9.5418915E2,7.7541534E1,1.0464891E3,1.2333201E2,1.8291287E3,1.6501519E3,3.5707926E4,1.1836755E4,2.2737246E3,2.342987E3,7.1585077E2,2.3833836E2,8.654368E0,6.888717E1,6.949842E2,3.5150497E2,1.6432346E3,1.8589404E2,4.1074026E2,1.2394116E3],"tree_param":{"num_deleted":"0","num_feature":"45","num_nodes":"29","size_leaf_vector":"1"}},{"base_weights":[-3.1915656E-3,-5.292461E-2,1.2582302E-1,-4.268074E-2,-8.2041717E-1,1.4357695E-1,-1.5305664E-1,-5.1593425E-4,-1.754397E-1,-8.7535E-1,-6.490166E-1,1.2872821E-1,4.5241132E-1,-1.7916018E-1,2.8905424E-1,2.0935691E-3,-3.36065E-2,-3.578889E-2,-1.1190821E-2,-8.8799186E-2,-5.580288E-2,-6.619558E-2,8.211709E-3,1.7438635E-2,3.3026494E-3,4.386428E-2,1.1516452E-1,-1.1526968E-2,-3.425027E-2,3.700971E-2,-2.503622E-2],"categories":[],"categories_nodes":[],"categories_segments":[],"categories_sizes":[],"default_left":[0,0,0,0,0,0,0,0,0,0,0,0,0,0,0,0,0,0,0,0,0,0,0,0,0,0,0,0,0,0,0],"id":49,"left_children":[1,3,5,7,9,11,13,15,17,19,21,23,25,27,29,-1,-1,-1,-1,-1,-1,-1,-1,-1,-1,-1,-1,-1,-1,-1,-1],"loss_changes":[3.699585E2,3.27159E2,7.94521E1,2.2989731E2,4.592499E0,6.910901E1,1.1138365E1,2.243773E2,1.1470981E2,1.1580505E0,1.349411E0,6.288275E1,6.1523895E0,9.433451E0,2.4507031E0,0E0,0E0,0E0,0E0,0E0,0E0,0E0,0E0,0E0,0E0,0E0,0E0,0E0,0E0,0E0,0E0],"parents":[2147483647,0,0,1,1,2,2,3,3,4,4,5,5,6,6,7,7,8,8,9,9,10,10,11,11,12,12,13,13,14,14],"right_children":[2,4,6,8,10,12,14,16,18,20,22,24,26,28,30,-1,-1,-1,-1,-1,-1,-1,-1,-1,-1,-1,-1,-1,-1,-1,-1],"split_conditions":[1E0,1E0,1E0,1E0,1E0,1E0,1E0,1E0,1E0,1E0,1E0,1E0,1E0,1E0,1E0,2.0935691E-3,-3.36065E-2,-3.578889E-2,-1.1190821E-2,-8.8799186E-2,-5.580288E-2,-6.619558E-2,8.211709E-3,1.7438635E-2,3.3026494E-3,4.386428E-2,1.1516452E-1,-1.1526968E-2,-3.425027E-2,3.700971E-2,-2.503622E-2],"split_indices":[39,36,30,23,29,2,2,25,29,10,6,12,11,23,20,0,0,0,0,0,0,0,0,0,0,0,0,0,0,0,0],"split_type":[0,0,0,0,0,0,0,0,0,0,0,0,0,0,0,0,0,0,0,0,0,0,0,0,0,0,0,0,0,0,0],"sum_hessian":[5.765723E4,4.1615656E4,1.6041575E4,4.1068562E4,5.4709436E2,1.5081922E4,9.5965393E2,3.116988E4,9.898682E3,4.1120016E2,1.3589418E2,1.4391401E4,6.9052026E2,9.067136E2,5.2940296E1,2.929781E4,1.8720691E3,2.5554185E3,7.343263E3,3.9371637E2,1.7483778E1,1.3362401E2,2.2701793E0,9.742533E3,4.6488677E3,6.787818E2,1.1738476E1,6.5300146E2,2.5371216E2,4.6298264E1,6.642035E0],"tree_param":{"num_deleted":"0","num_feature":"45","num_nodes":"31","size_leaf_vector":"1"}},{"base_weights":[-1.4608833E-3,-2.4456019E-2,5.778776E-1,-1.423604E-2,-8.5995245E-1,1.3523288E0,